svm_type c_svc
kernel_type polynomial
degree 1
gamma 0.5
coef0 1
nr_class 2
total_sv 831
rho 2.2602345831810342
label 1 -1
nr_sv 415 416
SV
100 1:0.27645207 2:14.167495 
100 1:0.32645207 2:14.067193 
100 1:0.37645207 2:13.966842 
100 1:0.42645207 2:13.86644 
100 1:0.47645207 2:13.765989 
100 1:0.52645207 2:13.665487 
100 1:0.57645207 2:13.564936 
100 1:0.62645207 2:13.464335 
100 1:0.67645207 2:13.363683 
100 1:0.72645207 2:13.262982 
100 1:0.77645207 2:13.16223 
100 1:0.82645207 2:13.061429 
100 1:0.87645207 2:12.960577 
100 1:0.92645207 2:12.859676 
100 1:0.97645207 2:12.758724 
100 1:1.0264521 2:12.657723 
100 1:1.0764521 2:12.556671 
100 1:1.1264521 2:12.45557 
100 1:1.1764521 2:12.354419 
100 1:1.2264521 2:12.253217 
100 1:1.2764521 2:12.151966 
100 1:1.3264521 2:12.050664 
100 1:1.3764521 2:11.949313 
100 1:1.4264521 2:11.847911 
100 1:1.4764521 2:11.74646 
100 1:1.5264521 2:11.644958 
100 1:1.5764521 2:11.543407 
100 1:1.6264521 2:11.441806 
100 1:1.6764521 2:11.340154 
100 1:1.7264521 2:11.238453 
100 1:1.7764521 2:11.136701 
100 1:1.8264521 2:11.0349 
100 1:1.8764521 2:10.933048 
100 1:1.9264521 2:10.831147 
100 1:1.9764521 2:10.729195 
100 1:2.0264521 2:10.627194 
100 1:2.0764521 2:10.525142 
100 1:2.1264521 2:10.423041 
100 1:2.1764521 2:10.32089 
100 1:2.2264521 2:10.218688 
100 1:2.2764521 2:10.116437 
100 1:2.3264521 2:10.014135 
100 1:2.3764521 2:9.9117837 
100 1:2.4264521 2:9.8093823 
100 1:2.4764521 2:9.7069308 
100 1:2.5264521 2:9.6044294 
100 1:2.5764521 2:9.5018779 
100 1:2.6264521 2:9.3992765 
100 1:2.6764521 2:9.296625 
100 1:2.7264521 2:9.1939236 
100 1:2.7764521 2:9.0911721 
100 1:2.8264521 2:8.9883707 
100 1:2.8764521 2:8.8855192 
100 1:2.9264521 2:8.7826178 
100 1:2.9764521 2:8.6796663 
100 1:3.0264521 2:8.5766649 
100 1:3.0764521 2:8.4736134 
100 1:3.1264521 2:8.370512 
100 1:3.1764521 2:8.2673605 
100 1:3.2264521 2:8.1641591 
100 1:3.2764521 2:8.0609076 
100 1:3.3264521 2:7.9576062 
100 1:3.3764521 2:7.8542547 
100 1:3.4264521 2:7.7508532 
100 1:3.4764521 2:7.6474018 
100 1:3.5264521 2:7.5439003 
100 1:3.5764521 2:7.4403489 
100 1:3.6264521 2:7.3367474 
100 1:3.6764521 2:7.233096 
100 1:3.7264521 2:7.1293945 
100 1:3.7764521 2:7.0256431 
100 1:3.8264521 2:6.9218416 
100 1:3.8764521 2:6.8179902 
100 1:3.9264521 2:6.7140887 
100 1:3.9764521 2:6.6101373 
100 1:4.0264521 2:6.5061358 
100 1:4.0764521 2:6.4020844 
100 1:4.1264521 2:6.2979829 
100 1:4.1764521 2:6.1938315 
100 1:4.2264521 2:6.08963 
100 1:4.2764521 2:5.9853786 
100 1:4.3264521 2:5.8810771 
100 1:4.3764521 2:5.7767257 
100 1:4.4264521 2:5.6723242 
100 1:4.4764521 2:5.5678728 
100 1:4.5264521 2:5.4633713 
100 1:4.5764521 2:5.3588198 
100 1:4.6264521 2:5.2542184 
100 1:4.6764521 2:5.1495669 
100 1:4.7264521 2:5.0448655 
100 1:4.7764521 2:4.940114 
100 1:4.8264521 2:4.8353126 
100 1:4.8764521 2:4.7304611 
100 1:4.9264521 2:4.6255597 
100 1:4.9764521 2:4.5206082 
100 1:5.0264521 2:4.4156068 
100 1:5.0764521 2:4.3105553 
100 1:5.1264521 2:4.2054539 
100 1:5.1764521 2:4.1003024 
100 1:5.2264521 2:3.995101 
100 1:5.2764521 2:3.8898495 
100 1:5.3264521 2:3.7845481 
100 1:5.3764521 2:3.6791966 
100 1:5.4264521 2:3.5737952 
100 1:5.4764521 2:3.4683437 
100 1:5.5264521 2:3.3628423 
100 1:5.5764521 2:3.2572908 
100 1:5.6264521 2:3.1516894 
100 1:5.6764521 2:3.0460379 
100 1:5.7264521 2:2.9403365 
100 1:5.7764521 2:2.834585 
100 1:5.8264521 2:2.7287835 
100 1:5.8764521 2:2.6229321 
100 1:5.9264521 2:2.5170306 
100 1:5.9764521 2:2.4110792 
100 1:6.0264521 2:2.3050777 
100 1:6.0764521 2:2.1990263 
100 1:6.1264521 2:2.0929248 
100 1:6.1764521 2:1.9867734 
100 1:6.2264521 2:1.8805719 
100 1:6.2764521 2:1.7743205 
100 1:6.3264521 2:1.668019 
100 1:6.3764521 2:1.5616676 
100 1:6.4264521 2:1.4552661 
99.574565913818262 1:6.5264521 2:1.2423132 
100 1:0.26347117 2:9.7863879 
100 1:0.31347117 2:9.6860994 
100 1:0.36347117 2:9.5857609 
100 1:0.41347117 2:9.4853725 
100 1:0.46347117 2:9.384934 
100 1:0.51347117 2:9.2844455 
100 1:0.56347117 2:9.183907 
100 1:0.61347117 2:9.0833186 
100 1:0.66347117 2:8.9826801 
100 1:0.71347117 2:8.8819916 
100 1:0.76347117 2:8.7812532 
100 1:0.81347117 2:8.6804647 
100 1:0.86347117 2:8.5796262 
100 1:0.91347117 2:8.4787377 
100 1:0.96347117 2:8.3777993 
100 1:1.0134712 2:8.2768108 
100 1:1.0634712 2:8.1757723 
100 1:1.1134712 2:8.0746839 
100 1:1.1634712 2:7.9735454 
100 1:1.2134712 2:7.8723569 
100 1:1.2634712 2:7.7711184 
100 1:1.3134712 2:7.66983 
100 1:1.3634712 2:7.5684915 
100 1:1.4134712 2:7.467103 
100 1:1.4634712 2:7.3656646 
100 1:1.5134712 2:7.2641761 
100 1:1.5634712 2:7.1626376 
100 1:1.6134712 2:7.0610491 
100 1:1.6634712 2:6.9594107 
100 1:1.7134712 2:6.8577222 
100 1:1.7634712 2:6.7559837 
100 1:1.8134712 2:6.6541953 
100 1:1.8634712 2:6.5523568 
100 1:1.9134712 2:6.4504683 
100 1:1.9634712 2:6.3485299 
100 1:2.0134712 2:6.2465414 
100 1:2.0634712 2:6.1445029 
100 1:2.1134712 2:6.0424144 
100 1:2.1634712 2:5.940276 
100 1:2.2134712 2:5.8380875 
100 1:2.2634712 2:5.735849 
100 1:2.3134712 2:5.6335606 
100 1:2.3634712 2:5.5312221 
100 1:2.4134712 2:5.4288336 
100 1:2.4634712 2:5.3263951 
100 1:2.5134712 2:5.2239067 
100 1:2.5634712 2:5.1213682 
100 1:2.6134712 2:5.0187797 
100 1:2.6634712 2:4.9161413 
100 1:2.7134712 2:4.8134528 
100 1:2.7634712 2:4.7107143 
100 1:2.8134712 2:4.6079258 
100 1:2.8634712 2:4.5050874 
100 1:2.9134712 2:4.4021989 
100 1:2.9634712 2:4.2992604 
100 1:3.0134712 2:4.196272 
100 1:3.0634712 2:4.0932335 
100 1:3.1134712 2:3.990145 
100 1:3.1634712 2:3.8870065 
100 1:3.2134712 2:3.7838181 
100 1:3.2634712 2:3.6805796 
100 1:3.3134712 2:3.5772911 
100 1:3.3634712 2:3.4739527 
100 1:3.4134712 2:3.3705642 
100 1:3.4634712 2:3.2671257 
100 1:3.5134712 2:3.1636372 
100 1:3.5634712 2:3.0600988 
100 1:3.6134712 2:2.9565103 
100 1:3.6634712 2:2.8528718 
100 1:3.7134712 2:2.7491834 
100 1:3.7634712 2:2.6454449 
100 1:3.8134712 2:2.5416564 
100 1:3.8634712 2:2.4378179 
100 1:3.9134712 2:2.3339295 
100 1:3.9634712 2:2.229991 
100 1:4.0134712 2:2.1260025 
100 1:4.0634712 2:2.0219641 
100 1:4.1134712 2:1.9178756 
100 1:4.1634712 2:1.8137371 
100 1:4.2134712 2:1.7095486 
100 1:4.2634712 2:1.6053102 
100 1:4.3134712 2:1.5010217 
100 1:4.3634712 2:1.3966832 
100 1:4.4134712 2:1.2922948 
100 1:4.4634712 2:1.1878563 
100 1:4.5134712 2:1.0833678 
100 1:4.5634712 2:0.97882935 
100 1:4.6134712 2:0.87424088 
100 1:4.6634712 2:0.76960241 
100 1:4.7134712 2:0.66491394 
100 1:4.7634712 2:0.56017547 
100 1:4.8134712 2:0.45538699 
100 1:4.8634712 2:0.35054852 
100 1:4.9134712 2:0.24566005 
100 1:4.9634712 2:0.14072158 
100 1:5.0134712 2:0.03573311 
100 1:0.27716087 2:8.8095751 
100 1:0.32716087 2:8.7092729 
100 1:0.37716087 2:8.6089208 
100 1:0.42716087 2:8.5085186 
100 1:0.47716087 2:8.4080664 
100 1:0.52716087 2:8.3075643 
100 1:0.57716087 2:8.2070121 
100 1:0.62716087 2:8.10641 
100 1:0.67716087 2:8.0057578 
100 1:0.72716087 2:7.9050556 
100 1:0.77716087 2:7.8043035 
100 1:0.82716087 2:7.7035013 
100 1:0.87716087 2:7.6026492 
100 1:0.92716087 2:7.501747 
100 1:0.97716087 2:7.4007948 
100 1:1.0271609 2:7.2997927 
100 1:1.0771609 2:7.1987405 
100 1:1.1271609 2:7.0976383 
100 1:1.1771609 2:6.9964862 
100 1:1.2271609 2:6.895284 
100 1:1.2771609 2:6.7940319 
100 1:1.3271609 2:6.6927297 
100 1:1.3771609 2:6.5913775 
100 1:1.4271609 2:6.4899754 
100 1:1.4771609 2:6.3885232 
100 1:1.5271609 2:6.2870211 
100 1:1.5771609 2:6.1854689 
100 1:1.6271609 2:6.0838667 
100 1:1.6771609 2:5.9822146 
100 1:1.7271609 2:5.8805124 
100 1:1.7771609 2:5.7787603 
100 1:1.8271609 2:5.6769581 
100 1:1.8771609 2:5.5751059 
100 1:1.9271609 2:5.4732038 
100 1:1.9771609 2:5.3712516 
100 1:2.0271609 2:5.2692495 
100 1:2.0771609 2:5.1671973 
100 1:2.1271609 2:5.0650951 
100 1:2.1771609 2:4.962943 
100 1:2.2271609 2:4.8607408 
100 1:2.2771609 2:4.7584886 
100 1:2.3271609 2:4.6561865 
100 1:2.3771609 2:4.5538343 
100 1:2.4271609 2:4.4514322 
100 1:2.4771609 2:4.34898 
100 1:2.5271609 2:4.2464778 
100 1:2.5771609 2:4.1439257 
100 1:2.6271609 2:4.0413235 
100 1:2.6771609 2:3.9386714 
100 1:2.7271609 2:3.8359692 
100 1:2.7771609 2:3.733217 
100 1:2.8271609 2:3.6304149 
100 1:2.8771609 2:3.5275627 
100 1:2.9271609 2:3.4246606 
100 1:2.9771609 2:3.3217084 
100 1:3.0271609 2:3.2187062 
100 1:3.0771609 2:3.1156541 
100 1:3.1271609 2:3.0125519 
100 1:3.1771609 2:2.9093998 
100 1:3.2271609 2:2.8061976 
100 1:3.2771609 2:2.7029454 
100 1:3.3271609 2:2.5996433 
100 1:3.3771609 2:2.4962911 
100 1:3.4271609 2:2.3928889 
100 1:3.4771609 2:2.2894368 
100 1:3.5271609 2:2.1859346 
100 1:3.5771609 2:2.0823825 
100 1:3.6271609 2:1.9787803 
100 1:3.6771609 2:1.8751281 
100 1:3.7271609 2:1.771426 
100 1:3.7771609 2:1.6676738 
100 1:3.8271609 2:1.5638717 
100 1:3.8771609 2:1.4600195 
100 1:3.9271609 2:1.3561173 
100 1:3.9771609 2:1.2521652 
100 1:4.0271609 2:1.148163 
100 1:4.0771609 2:1.0441109 
100 1:4.1271609 2:0.9400087 
100 1:4.1771609 2:0.83585653 
100 1:4.2271609 2:0.73165437 
100 1:4.2771609 2:0.62740221 
100 1:4.3271609 2:0.52310005 
100 1:4.3771609 2:0.41874789 
100 1:4.4271609 2:0.31434573 
100 1:4.4771609 2:0.20989357 
100 1:4.5271609 2:0.10539141 
100 1:4.5771609 2:0.00083924732 
100 1:1.25 2:3.494375 
100 1:1.3 2:3.3931 
100 1:1.35 2:3.291775 
100 1:1.4 2:3.1904 
100 1:1.45 2:3.088975 
100 1:1.5 2:2.9875 
100 1:1.55 2:2.885975 
100 1:1.6 2:2.7844 
100 1:1.65 2:2.682775 
100 1:1.7 2:2.5811 
100 1:1.75 2:2.479375 
100 1:1.8 2:2.3776 
100 1:1.85 2:2.275775 
100 1:1.9 2:2.1739 
100 1:1.95 2:2.071975 
100 1:2 2:1.97 
100 1:2.05 2:1.867975 
100 1:2.1 2:1.7659 
100 1:2.15 2:1.663775 
100 1:2.2 2:1.5616 
100 1:2.25 2:1.459375 
100 1:2.3 2:1.3571 
100 1:2.35 2:1.254775 
100 1:2.4 2:1.1524 
100 1:2.45 2:1.049975 
100 1:2.5 2:0.9475 
100 1:2.55 2:0.844975 
100 1:2.6 2:0.7424 
100 1:2.65 2:0.639775 
100 1:2.7 2:0.5371 
100 1:2.75 2:0.434375 
100 1:2.8 2:0.3316 
100 1:2.85 2:0.228775 
100 1:2.9 2:0.1259 
100 1:2.95 2:0.022975 
100 1:0.27678791 2:4.6169749 
100 1:0.32678791 2:4.5166731 
100 1:0.37678791 2:4.4163213 
100 1:0.42678791 2:4.3159195 
100 1:0.47678791 2:4.2154677 
100 1:0.52678791 2:4.1149659 
100 1:0.57678791 2:4.0144141 
100 1:0.62678791 2:3.9138123 
100 1:0.67678791 2:3.8131606 
100 1:0.72678791 2:3.7124588 
100 1:0.77678791 2:3.611707 
100 1:0.82678791 2:3.5109052 
100 1:0.87678791 2:3.4100534 
100 1:0.92678791 2:3.3091516 
100 1:0.97678791 2:3.2081998 
100 1:1.0267879 2:3.107198 
100 1:1.0767879 2:3.0061463 
100 1:1.1267879 2:2.9050445 
100 1:1.1767879 2:2.8038927 
100 1:1.2267879 2:2.7026909 
100 1:1.2767879 2:2.6014391 
100 1:1.3267879 2:2.5001373 
100 1:1.3767879 2:2.3987855 
100 1:1.4267879 2:2.2973837 
100 1:1.4767879 2:2.195932 
100 1:1.5267879 2:2.0944302 
100 1:1.5767879 2:1.9928784 
100 1:1.6267879 2:1.8912766 
100 1:1.6767879 2:1.7896248 
100 1:1.7267879 2:1.687923 
100 1:1.7767879 2:1.5861712 
100 1:1.8267879 2:1.4843694 
100 1:1.8767879 2:1.3825176 
100 1:1.9267879 2:1.2806159 
100 1:1.9767879 2:1.1786641 
100 1:2.0267879 2:1.0766623 
100 1:2.0767879 2:0.9746105 
100 1:2.1267879 2:0.87250871 
100 1:2.1767879 2:0.77035692 
100 1:2.2267879 2:0.66815513 
100 1:2.2767879 2:0.56590335 
100 1:2.3267879 2:0.46360156 
100 1:2.3767879 2:0.36124977 
100 1:2.4267879 2:0.25884798 
100 1:2.4767879 2:0.15639619 
100 1:2.5267879 2:0.053894406 
100 1:0.026787905 2:5.1177338 
100 1:0.076787905 2:5.017682 
100 1:0.12678791 2:4.9175802 
100 1:0.17678791 2:4.8174284 
100 1:0.22678791 2:4.7172266 
100 1:0.027160868 2:9.3103359 
100 1:0.077160868 2:9.2102837 
100 1:0.12716087 2:9.1101816 
100 1:0.17716087 2:9.0100294 
100 1:0.22716087 2:8.9098272 
100 1:0.01347117 2:10.28708 
100 1:0.06347117 2:10.187042 
100 1:0.11347117 2:10.086953 
100 1:0.16347117 2:9.9868148 
100 1:0.21347117 2:9.8866263 
100 1:0.012858914 2:14.293806 
100 1:0.062858914 2:14.193768 
100 1:0.11285891 2:14.09368 
100 1:0.16285891 2:13.993542 
100 1:0.21285891 2:13.893354 
100 1:0.26285891 2:13.793116 
100 1:0.026452072 2:14.668252 
100 1:0.076452072 2:14.568201 
100 1:0.12645207 2:14.468099 
100 1:0.17645207 2:14.367948 
100 1:0.22645207 2:14.267746 
-100 1:-0.79477731 2:8.2104926 
-100 1:-0.75048861 2:8.3100307 
-100 1:-0.70604515 2:8.4055759 
-100 1:-0.66144829 2:8.4971143 
-100 1:-0.61669925 2:8.584632 
-100 1:-0.57179912 2:8.6681156 
-100 1:-0.52674884 2:8.7475514 
-100 1:-0.48154921 2:8.8229259 
-100 1:-0.43620089 2:8.8942258 
-100 1:-0.39070439 2:8.9614376 
-100 1:-0.34506012 2:9.0245481 
-100 1:-0.29926831 2:9.083544 
-100 1:-0.25332907 2:9.138412 
-100 1:-0.2072424 2:9.1891388 
-100 1:-0.16100812 2:9.2357112 
-100 1:-0.11462593 2:9.2781159 
-100 1:-0.068095397 2:9.3163394 
-100 1:-0.021415948 2:9.3503686 
-100 1:-1.8069369 2:10.562261 
-100 1:-1.7379399 2:10.751778 
-100 1:-1.6692077 2:10.935098 
-100 1:-1.6007197 2:11.112243 
-100 1:-1.5324558 2:11.283234 
-100 1:-1.4643968 2:11.448091 
-100 1:-1.3965242 2:11.606831 
-100 1:-1.0408047 2:8.712663 
-100 1:-0.99177057 2:8.8341297 
-100 1:-0.94262699 2:8.9511784 
-100 1:-0.89337299 2:9.0637992 
-100 1:-0.84400747 2:9.1719822 
-100 1:-0.79452927 2:9.2757172 
-100 1:-0.74493708 2:9.374994 
-100 1:-0.69522953 2:9.4698024 
-100 1:-0.6454051 2:9.5601318 
-100 1:-0.59546218 2:9.6459718 
-100 1:-0.54539904 2:9.7273114 
-100 1:-0.49521383 2:9.8041399 
-100 1:-0.44490459 2:9.8764462 
-100 1:-0.39446925 2:9.944219 
-100 1:-0.34390559 2:10.007447 
-100 1:-0.29321127 2:10.066118 
-100 1:-0.24238383 2:10.120221 
-100 1:-0.19142067 2:10.169743 
-100 1:-0.14031905 2:10.214672 
-100 1:-0.089076068 2:10.254996 
-100 1:-0.037688702 2:10.290702 
-100 1:-1.9963902 2:11.013324 
-100 1:-1.9216149 2:11.219631 
-100 1:-1.8472578 2:11.419227 
-100 1:-1.7732894 2:11.612149 
-100 1:-1.6996815 2:11.79843 
-100 1:-1.6264071 2:11.978102 
-100 1:-1.55344 2:12.151193 
-100 1:-1.4807552 2:12.31773 
-100 1:-1.4083284 2:12.477737 
-100 1:-1.3361362 2:12.631236 
-100 1:-1.264156 2:12.778247 
-100 1:-1.1923656 2:12.91879 
-100 1:-1.1207437 2:13.052878 
-100 1:-1.0492693 2:13.180528 
-100 1:-0.97792202 2:13.301751 
-100 1:-0.90668187 2:13.416557 
-100 1:-0.83552925 2:13.524956 
-100 1:-0.76444484 2:13.626954 
-100 1:-0.69340964 2:13.722558 
-100 1:-0.62240487 2:13.811769 
-100 1:-0.5514119 2:13.894591 
-100 1:-0.48041227 2:13.971023 
-100 1:-0.40938759 2:14.041064 
-100 1:-0.33831954 2:14.104711 
-100 1:-0.26718976 2:14.16196 
-100 1:-0.1959799 2:14.212803 
-100 1:-0.12467148 2:14.257233 
-100 1:-0.053245911 2:14.295241 
-100 1:-2.6377516 2:12.626172 
-100 1:-2.5404411 2:12.889182 
-100 1:-2.4442949 2:13.143486 
-100 1:-2.3492355 2:13.389187 
-100 1:-2.2551904 2:13.626379 
-100 1:-2.1620906 2:13.85515 
-100 1:-2.0698714 2:14.075582 
-100 1:-1.9784712 2:14.287751 
-100 1:-1.8878315 2:14.49173 
-100 1:-1.7978967 2:14.687582 
-100 1:-1.7086141 2:14.87537 
-100 1:-1.6199329 2:15.055151 
-100 1:-1.531805 2:15.226975 
-100 1:-1.4441838 2:15.390891 
-100 1:-1.3570248 2:15.546942 
-100 1:-1.2702851 2:15.695168 
-100 1:-1.1839233 2:15.835605 
-100 1:-1.0978992 2:15.968284 
-100 1:-1.0121738 2:16.093235 
-100 1:-0.92670941 2:16.210483 
-100 1:-0.84146894 2:16.32005 
-100 1:-0.75641629 2:16.421953 
-100 1:-0.67151604 2:16.516209 
-100 1:-0.58673333 2:16.60283 
-100 1:-0.5020338 2:16.681824 
-100 1:-0.41738344 2:16.753197 
-100 1:-0.33274853 2:16.816953 
-100 1:-0.24809552 2:16.873092 
-100 1:-0.16339094 2:16.921609 
-100 1:-0.078601284 2:16.962499 
-100 1:-2.1168719 2:11.181942 
-100 1:-2.0388279 2:11.398945 
-100 1:-1.9613023 2:11.608947 
-100 1:-1.8842599 2:11.811994 
-100 1:-1.807667 2:12.008127 
-100 1:-1.7314915 2:12.197386 
-100 1:-1.6557024 2:12.379807 
-100 1:-1.5802702 2:12.555424 
-100 1:-1.5051663 2:12.724266 
-100 1:-1.4303633 2:12.886362 
-100 1:-1.3558346 2:13.041739 
-100 1:-1.2815546 2:13.19042 
-100 1:-1.2074984 2:13.332426 
-100 1:-1.1336419 2:13.467776 
-100 1:-1.0599615 2:13.596487 
-100 1:-0.9864343 2:13.718574 
-100 1:-0.91303785 2:13.834049 
-100 1:-0.83975017 2:13.942924 
-100 1:-0.76654967 2:14.045207 
-100 1:-0.69341508 2:14.140905 
-100 1:-0.62032542 2:14.230023 
-100 1:-0.54725993 2:14.312564 
-100 1:-0.47419801 2:14.388529 
-100 1:-0.40111919 2:14.457919 
-100 1:-0.32800306 2:14.52073 
-100 1:-0.25482923 2:14.576958 
-100 1:-0.18157728 2:14.626597 
-100 1:-0.1082267 2:14.669639 
-100 1:-0.034756855 2:14.706074 
-26.248255606731135 1:-2.8261351 2:12.682138 
-100 1:-2.7235218 2:12.961862 
-100 1:-2.6223087 2:13.232414 
-100 1:-2.5224026 2:13.493917 
-100 1:-2.4237162 2:13.746483 
-100 1:-2.3261672 2:13.99022 
-100 1:-2.2296784 2:14.225225 
-100 1:-2.1341767 2:14.451591 
-100 1:-2.039593 2:14.669404 
-100 1:-1.945862 2:14.878744 
-100 1:-1.8529216 2:15.079683 
-100 1:-1.7607128 2:15.272291 
-100 1:-1.6691793 2:15.456632 
-100 1:-1.5782674 2:15.632762 
-100 1:-1.4879256 2:15.800737 
-100 1:-1.3981047 2:15.960605 
-100 1:-1.3087571 2:16.11241 
-100 1:-1.2198371 2:16.256194 
-100 1:-1.1313006 2:16.391992 
-100 1:-1.0431047 2:16.519838 
-100 1:-0.95520789 2:16.63976 
-100 1:-0.86756958 2:16.751783 
-100 1:-0.78015025 2:16.855929 
-100 1:-0.69291115 2:16.952216 
-100 1:-0.60581425 2:17.040657 
-100 1:-0.51882206 2:17.121265 
-100 1:-0.43189756 2:17.194047 
-100 1:-0.34500405 2:17.259008 
-100 1:-0.25810507 2:17.316148 
-100 1:-0.17116428 2:17.365466 
-100 1:-0.084145317 2:17.406955 
-100 1:-3.0921335 2:13.742533 
-100 1:-2.976621 2:14.045612 
-100 1:-2.863029 2:14.338382 
-100 1:-2.7512253 2:14.621011 
-100 1:-2.6410868 2:14.893653 
-100 1:-2.5324983 2:15.156453 
-100 1:-2.425352 2:15.409546 
-100 1:-2.3195469 2:15.653057 
-100 1:-2.2149878 2:15.887102 
-100 1:-2.1115852 2:16.111789 
-100 1:-2.0092546 2:16.327219 
-100 1:-1.907916 2:16.533485 
-100 1:-1.8074937 2:16.730672 
-100 1:-1.7079155 2:16.918859 
-100 1:-1.609113 2:17.09812 
-100 1:-1.5110205 2:17.268521 
-100 1:-1.4135755 2:17.430123 
-100 1:-1.3167177 2:17.582982 
-100 1:-1.2203893 2:17.727148 
-100 1:-1.1245344 2:17.862666 
-100 1:-1.0290991 2:17.989577 
-100 1:-0.93403101 2:18.107915 
-100 1:-0.83927908 2:18.217712 
-100 1:-0.74479361 2:18.318993 
-100 1:-0.6505259 2:18.411781 
-100 1:-0.55642815 2:18.496093 
-100 1:-0.46245325 2:18.571942 
-100 1:-0.36855466 2:18.639337 
-100 1:-0.27468622 2:18.698283 
-100 1:-0.18080203 2:18.74878 
-100 1:-0.086856257 2:18.790825 
-100 1:4.6343505 2:-0.27360945 
-100 1:4.5643505 2:-0.31960295 
-100 1:4.4943505 2:-0.36489646 
-100 1:4.4243505 2:-0.40948996 
-100 1:4.3543505 2:-0.45338347 
-100 1:4.2843505 2:-0.49657697 
-100 1:4.2143505 2:-0.53907047 
-100 1:4.1443505 2:-0.58086398 
-100 1:4.0743505 2:-0.62195748 
-100 1:4.0043505 2:-0.66235099 
-100 1:3.9343505 2:-0.70204449 
-100 1:3.8643505 2:-0.741038 
-100 1:3.7943505 2:-0.7793315 
-100 1:3.7243505 2:-0.81692501 
-100 1:3.6543505 2:-0.85381851 
-100 1:3.5843505 2:-0.89001202 
-100 1:3.5143505 2:-0.92550552 
-100 1:3.4443505 2:-0.96029903 
-100 1:3.3743505 2:-0.99439253 
-100 1:3.3043505 2:-1.027786 
-100 1:3.2343505 2:-1.0604795 
-100 1:4.2281739 2:-0.21989589 
-100 1:4.1581739 2:-0.26182763 
-100 1:4.0881739 2:-0.30305937 
-100 1:4.0181739 2:-0.34359111 
-100 1:3.9481739 2:-0.38342285 
-100 1:3.8781739 2:-0.42255458 
-100 1:3.8081739 2:-0.46098632 
-100 1:3.7381739 2:-0.49871806 
-100 1:3.6681739 2:-0.5357498 
-100 1:3.5981739 2:-0.57208154 
-100 1:3.5281739 2:-0.60771328 
-100 1:3.4581739 2:-0.64264502 
-100 1:3.3881739 2:-0.67687676 
-100 1:3.3181739 2:-0.71040849 
-100 1:3.2481739 2:-0.74324023 
-100 1:3.1781739 2:-0.77537197 
-100 1:3.1081739 2:-0.80680371 
-100 1:7.897491 2:-0.30550843 
-100 1:7.757491 2:-0.46205825 
-100 1:7.687491 2:-0.53928316 
-100 1:7.617491 2:-0.61580807 
-100 1:7.547491 2:-0.69163298 
-100 1:7.477491 2:-0.76675789 
-100 1:7.407491 2:-0.8411828 
-100 1:7.337491 2:-0.91490771 
-100 1:7.267491 2:-0.98793262 
-100 1:7.197491 2:-1.0602575 
-100 1:7.127491 2:-1.1318824 
-100 1:7.057491 2:-1.2028074 
-100 1:6.987491 2:-1.2730323 
-100 1:6.917491 2:-1.3425572 
-100 1:6.847491 2:-1.4113821 
-100 1:6.777491 2:-1.479507 
-100 1:6.707491 2:-1.5469319 
-100 1:6.637491 2:-1.6136568 
-100 1:6.567491 2:-1.6796817 
-100 1:6.497491 2:-1.7450066 
-100 1:6.427491 2:-1.8096315 
-100 1:6.357491 2:-1.8735565 
-100 1:6.287491 2:-1.9367814 
-100 1:6.217491 2:-1.9993063 
-100 1:6.147491 2:-2.0611312 
-100 1:6.077491 2:-2.1222561 
-100 1:6.007491 2:-2.182681 
-100 1:5.937491 2:-2.2424059 
-100 1:5.867491 2:-2.3014308 
-100 1:5.797491 2:-2.3597557 
-100 1:5.727491 2:-2.4173806 
-100 1:5.657491 2:-2.4743056 
-100 1:5.587491 2:-2.5305305 
-100 1:5.517491 2:-2.5860554 
-100 1:5.447491 2:-2.6408803 
-100 1:5.377491 2:-2.6950052 
-100 1:5.307491 2:-2.7484301 
-100 1:5.237491 2:-2.801155 
-100 1:5.167491 2:-2.8531799 
-100 1:5.097491 2:-2.9045048 
-100 1:5.027491 2:-2.9551298 
-100 1:4.957491 2:-3.0050547 
-100 1:4.887491 2:-3.0542796 
-100 1:4.817491 2:-3.1028045 
-100 1:4.747491 2:-3.1506294 
-100 1:4.677491 2:-3.1977543 
-100 1:4.607491 2:-3.2441792 
-100 1:4.537491 2:-3.2899041 
-100 1:4.467491 2:-3.334929 
-100 1:4.397491 2:-3.3792539 
-100 1:4.327491 2:-3.4228789 
-100 1:4.257491 2:-3.4658038 
-100 1:6.7321347 2:-0.37169631 
-100 1:6.6621347 2:-0.43866766 
-100 1:6.5921347 2:-0.504939 
-100 1:6.5221347 2:-0.57051035 
-100 1:6.4521347 2:-0.6353817 
-100 1:6.3821347 2:-0.69955305 
-100 1:6.3121347 2:-0.76302439 
-100 1:6.2421347 2:-0.82579574 
-100 1:6.1721347 2:-0.88786709 
-100 1:6.1021347 2:-0.94923844 
-100 1:6.0321347 2:-1.0099098 
-100 1:5.9621347 2:-1.0698811 
-100 1:5.8921347 2:-1.1291525 
-100 1:5.8221347 2:-1.1877238 
-100 1:5.7521347 2:-1.2455952 
-100 1:5.6821347 2:-1.3027665 
-100 1:5.6121347 2:-1.3592379 
-100 1:5.5421347 2:-1.4150092 
-100 1:5.4721347 2:-1.4700806 
-100 1:5.4021347 2:-1.5244519 
-100 1:5.3321347 2:-1.5781233 
-100 1:5.2621347 2:-1.6310946 
-100 1:5.1921347 2:-1.683366 
-100 1:5.1221347 2:-1.7349373 
-100 1:5.0521347 2:-1.7858086 
-100 1:4.9821347 2:-1.83598 
-100 1:4.9121347 2:-1.8854513 
-100 1:4.8421347 2:-1.9342227 
-100 1:4.7721347 2:-1.982294 
-100 1:4.7021347 2:-2.0296654 
-100 1:4.6321347 2:-2.0763367 
-100 1:4.5621347 2:-2.1223081 
-100 1:4.4921347 2:-2.1675794 
-100 1:4.4221347 2:-2.2121508 
-100 1:4.3521347 2:-2.2560221 
-100 1:4.2821347 2:-2.2991935 
-100 1:4.2121347 2:-2.3416648 
-100 1:4.1421347 2:-2.3834362 
-100 1:4.0721347 2:-2.4245075 
-100 1:4.0021347 2:-2.4648789 
-100 1:3.9321347 2:-2.5045502 
-100 1:3.8621347 2:-2.5435216 
-100 1:4.65 2:-3.24125 
-100 1:4.58 2:-3.2874 
-100 1:4.51 2:-3.33285 
-100 1:4.44 2:-3.3776 
-100 1:4.37 2:-3.42165 
-100 1:4.3 2:-3.465 
-100 1:8.658172 2:-0.43861183 
-100 1:8.588172 2:-0.52484355 
-100 1:8.518172 2:-0.61037527 
-100 1:8.448172 2:-0.69520699 
-100 1:8.378172 2:-0.77933871 
-100 1:8.308172 2:-0.86277043 
-100 1:8.238172 2:-0.94550215 
-100 1:8.168172 2:-1.0275339 
-100 1:8.098172 2:-1.1088656 
-100 1:8.028172 2:-1.1894973 
-100 1:7.958172 2:-1.269429 
-100 1:7.888172 2:-1.3486608 
-100 1:7.818172 2:-1.4271925 
-100 1:7.748172 2:-1.5050242 
-100 1:7.678172 2:-1.5821559 
-100 1:7.608172 2:-1.6585876 
-100 1:7.538172 2:-1.7343194 
-100 1:7.468172 2:-1.8093511 
-100 1:7.398172 2:-1.8836828 
-100 1:7.328172 2:-1.9573145 
-100 1:7.258172 2:-2.0302462 
-100 1:7.188172 2:-2.102478 
-100 1:7.118172 2:-2.1740097 
-100 1:7.048172 2:-2.2448414 
-100 1:6.978172 2:-2.3149731 
-100 1:6.908172 2:-2.3844048 
-100 1:6.838172 2:-2.4531366 
-100 1:6.768172 2:-2.5211683 
-100 1:6.698172 2:-2.5885 
-100 1:6.628172 2:-2.6551317 
-100 1:6.558172 2:-2.7210634 
-100 1:6.488172 2:-2.7862952 
-100 1:6.418172 2:-2.8508269 
-100 1:6.348172 2:-2.9146586 
-100 1:6.278172 2:-2.9777903 
-100 1:6.208172 2:-3.040222 
-100 1:6.138172 2:-3.1019538 
-100 1:6.068172 2:-3.1629855 
-100 1:5.998172 2:-3.2233172 
-100 1:5.928172 2:-3.2829489 
-100 1:5.858172 2:-3.3418806 
-100 1:5.788172 2:-3.4001124 
-100 1:5.718172 2:-3.4576441 
-100 1:5.648172 2:-3.5144758 
-100 1:5.578172 2:-3.5706075 
-100 1:5.508172 2:-3.6260392 
-100 1:5.438172 2:-3.680771 
-100 1:5.368172 2:-3.7348027 
-100 1:5.298172 2:-3.7881344 
-100 1:5.228172 2:-3.8407661 
-100 1:5.158172 2:-3.8926978 
-100 1:5.088172 2:-3.9439296 
-100 1:5.018172 2:-3.9944613 
-100 1:4.948172 2:-4.044293 
-100 1:4.878172 2:-4.0934247 
-100 1:4.808172 2:-4.1418564 
-100 1:4.738172 2:-4.1895882 
-100 1:4.668172 2:-4.2366199 
-100 1:4.5081739 2:-0.045168934 
-100 1:4.4381739 2:-0.089900673 
-100 1:4.3681739 2:-0.13393241 
-100 1:4.2981739 2:-0.17726415 
-100 1:2.9068285 2:-0.022895749 
-100 1:2.8368285 2:-0.051614035 
-73.326310307078387 1:2.7668285 2:-0.07963232 
-100 1:4.9843505 2:-0.033141923 
-100 1:4.9143505 2:-0.082635428 
-100 1:4.8443505 2:-0.13142893 
-100 1:4.7743505 2:-0.17952244 
-100 1:4.7043505 2:-0.22691594 
-100 1:8.107491 2:-0.065433698 
-100 1:8.037491 2:-0.14615861 
-100 1:7.967491 2:-0.22618352 
-100 1:7.827491 2:-0.38413334 
-100 1:7.0821347 2:-0.026339572 
-100 1:7.0121347 2:-0.096810919 
-100 1:6.9421347 2:-0.16658227 
-100 1:6.8721347 2:-0.23565361 
-100 1:6.8021347 2:-0.30402496 
-100 1:8.938172 2:-0.08668495 
-100 1:8.868172 2:-0.17571667 
-100 1:8.798172 2:-0.26404839 
-100 1:8.728172 2:-0.35168011 
