svm_type c_svc
kernel_type linear
nr_class 2
total_sv 81
rho 0.046226531369677443
label 1 -1
probA -1.5658334902633972
probB 0.033650514387932311
nr_sv 40 41
SV
200 1:0.00087489394 2:-1.9599708 
200 1:-0.0042117637 2:-1.9533664 
200 1:-0.012839022 2:1.4266336 
200 1:-0.0090882656 2:1.4366336 
200 1:-0.0053212823 2:1.4466336 
200 1:-0.00028005673 2:-1.1634326 
200 1:-0.0032873367 2:-1.1534326 
200 1:-0.0062608416 2:-1.1434326 
200 1:-0.012756317 2:0.91656736 
200 1:-0.010330225 2:0.92656736 
200 1:-0.0078844667 2:0.93656736 
200 1:-0.0054190927 2:0.94656736 
200 1:-0.0029341541 2:0.95656736 
200 1:-0.00026149382 2:-0.82759486 
200 1:-0.0023967779 2:-0.81759486 
200 1:-0.0045005512 2:-0.80759486 
200 1:-0.0065728955 2:-0.79759486 
200 1:-0.0086138926 2:-0.78759486 
200 1:-0.013035281 2:0.65240514 
200 1:-0.011294394 2:0.66240514 
200 1:-0.0095320616 2:0.67240514 
200 1:-0.0077483391 2:0.68240514 
200 1:-0.005943282 2:0.69240514 
200 1:-0.0041169457 2:0.70240514 
200 1:-0.0022693855 2:0.71240514 
200 1:4.2135966e-05 2:-0.64333986 
200 1:-0.0016167632 2:-0.63383408 
200 1:-0.0032454045 2:-0.62383408 
200 1:-0.0048438505 2:-0.61383408 
200 1:-0.0064121798 2:-0.60383408 
200 1:-0.0079504705 2:-0.59383408 
200 1:-0.0094588007 2:-0.58383408 
200 1:-0.011695587 2:0.49616592 
200 1:-0.010363874 2:0.50616592 
200 1:-0.0090096521 2:0.51616592 
200 1:-0.0076329804 2:0.52616592 
200 1:-0.0062339172 2:0.53616592 
200 1:-0.0048125206 2:0.54616592 
200 1:-0.0033688486 2:0.55616592 
200 1:-0.0019029591 2:0.56616592 
-200 2:3 
-200 1:0.011045758 2:-1.9399708 
-200 1:0.0059667149 2:-1.9499708 
-200 1:-0.0015381142 2:1.4566336 
-200 1:0.0022519709 2:1.4547168 
-200 1:0.0060104857 2:1.4447168 
-200 1:0.01169025 2:-1.1252832 
-200 1:0.0087249701 2:-1.1352832 
-200 1:0.0057414236 2:-1.1452832 
-200 1:0.002739658 2:-1.1552832 
-200 1:-0.00042970178 2:0.96656736 
-200 1:0.0020763115 2:0.95996565 
-200 1:0.0045506002 2:0.94996565 
-200 1:0.0069924979 2:0.93996565 
-118.52883019320826 1:0.012313621 2:-0.77003435 
-200 1:0.010269169 2:-0.78003435 
-200 1:0.0082040602 2:-0.79003435 
-200 1:0.0061183473 2:-0.80003435 
-200 1:0.004012084 2:-0.81003435 
-200 1:0.0018853236 2:-0.82003435 
-200 1:-0.00040065656 2:0.72240514 
-200 1:0.0014730835 2:0.71666014 
-200 1:0.0033171658 2:0.70666014 
-200 1:0.0051304936 2:0.69666014 
-200 1:0.0069131466 2:0.68666014 
-200 1:0.0086652045 2:0.67666014 
-200 1:0.011218013 2:-0.57333986 
-200 1:0.0096871474 2:-0.58333986 
-200 1:0.0081342911 2:-0.59333986 
-200 1:0.0065595008 2:-0.60333986 
-200 1:0.0049628334 2:-0.61333986 
-200 1:0.0033443457 2:-0.62333986 
-200 1:0.0017040944 2:-0.63333986 
-200 1:-0.00041490968 2:0.57616592 
-200 1:0.0010816155 2:0.57168243 
-200 1:0.0025502619 2:0.56168243 
-200 1:0.0039891285 2:0.55168243 
-200 1:0.0053982928 2:0.54168243 
-200 1:0.0067778318 2:0.53168243 
-200 1:0.0081278224 2:0.52168243 
-81.471169806792219 1:0.0094483415 2:0.51168243 
