svm_type c_svc
kernel_type polynomial
degree 1
gamma 0.5
coef0 1
nr_class 2
total_sv 2797
rho 2.1738871721360433
label 1 -1
nr_sv 1398 1399
SV
100 1:0.053577263 2:10.206074 
100 1:0.063577263 2:10.186062 
100 1:0.073577263 2:10.166048 
100 1:0.083577263 2:10.146032 
100 1:0.093577263 2:10.126015 
100 1:0.10357726 2:10.105995 
100 1:0.11357726 2:10.085973 
100 1:0.12357726 2:10.06595 
100 1:0.13357726 2:10.045924 
100 1:0.14357726 2:10.025896 
100 1:0.15357726 2:10.005866 
100 1:0.16357726 2:9.9858347 
100 1:0.17357726 2:9.965801 
100 1:0.18357726 2:9.9457652 
100 1:0.19357726 2:9.9257275 
100 1:0.20357726 2:9.9056878 
100 1:0.21357726 2:9.8856461 
100 1:0.22357726 2:9.8656024 
100 1:0.23357726 2:9.8455567 
100 1:0.24357726 2:9.825509 
100 1:0.25357726 2:9.8054592 
100 1:0.26357726 2:9.7854075 
100 1:0.27357726 2:9.7653538 
100 1:0.28357726 2:9.7452981 
100 1:0.29357726 2:9.7252404 
100 1:0.30357726 2:9.7051807 
100 1:0.31357726 2:9.6851189 
100 1:0.32357726 2:9.6650552 
100 1:0.33357726 2:9.6449895 
100 1:0.34357726 2:9.6249218 
100 1:0.35357726 2:9.6048521 
100 1:0.36357726 2:9.5847804 
100 1:0.37357726 2:9.5647067 
100 1:0.38357726 2:9.5446309 
100 1:0.39357726 2:9.5245532 
100 1:0.40357726 2:9.5044735 
100 1:0.41357726 2:9.4843918 
100 1:0.42357726 2:9.4643081 
100 1:0.43357726 2:9.4442224 
100 1:0.44357726 2:9.4241346 
100 1:0.45357726 2:9.4040449 
100 1:0.46357726 2:9.3839532 
100 1:0.47357726 2:9.3638595 
100 1:0.48357726 2:9.3437638 
100 1:0.49357726 2:9.3236661 
100 1:0.50357726 2:9.3035664 
100 1:0.51357726 2:9.2834646 
100 1:0.52357726 2:9.2633609 
100 1:0.53357726 2:9.2432552 
100 1:0.54357726 2:9.2231475 
100 1:0.55357726 2:9.2030378 
100 1:0.56357726 2:9.1829261 
100 1:0.57357726 2:9.1628123 
100 1:0.58357726 2:9.1426966 
100 1:0.59357726 2:9.1225789 
100 1:0.60357726 2:9.1024592 
100 1:0.61357726 2:9.0823375 
100 1:0.62357726 2:9.0622138 
100 1:0.63357726 2:9.0420881 
100 1:0.64357726 2:9.0219603 
100 1:0.65357726 2:9.0018306 
100 1:0.66357726 2:8.9816989 
100 1:0.67357726 2:8.9615652 
100 1:0.68357726 2:8.9414295 
100 1:0.69357726 2:8.9212918 
100 1:0.70357726 2:8.901152 
100 1:0.71357726 2:8.8810103 
100 1:0.72357726 2:8.8608666 
100 1:0.73357726 2:8.8407209 
100 1:0.74357726 2:8.8205732 
100 1:0.75357726 2:8.8004235 
100 1:0.76357726 2:8.7802718 
100 1:0.77357726 2:8.760118 
100 1:0.78357726 2:8.7399623 
100 1:0.79357726 2:8.7198046 
100 1:0.80357726 2:8.6996449 
100 1:0.81357726 2:8.6794832 
100 1:0.82357726 2:8.6593195 
100 1:0.83357726 2:8.6391537 
100 1:0.84357726 2:8.618986 
100 1:0.85357726 2:8.5988163 
100 1:0.86357726 2:8.5786446 
100 1:0.87357726 2:8.5584709 
100 1:0.88357726 2:8.5382952 
100 1:0.89357726 2:8.5181174 
100 1:0.90357726 2:8.4979377 
100 1:0.91357726 2:8.477756 
100 1:0.92357726 2:8.4575723 
100 1:0.93357726 2:8.4373866 
100 1:0.94357726 2:8.4171989 
100 1:0.95357726 2:8.3970092 
100 1:0.96357726 2:8.3768174 
100 1:0.97357726 2:8.3566237 
100 1:0.98357726 2:8.336428 
100 1:0.99357726 2:8.3162303 
100 1:1.0035773 2:8.2960306 
100 1:1.0135773 2:8.2758289 
100 1:1.0235773 2:8.2556251 
100 1:1.0335773 2:8.2354194 
100 1:1.0435773 2:8.2152117 
100 1:1.0535773 2:8.195002 
100 1:1.0635773 2:8.1747903 
100 1:1.0735773 2:8.1545766 
100 1:1.0835773 2:8.1343609 
100 1:1.0935773 2:8.1141431 
100 1:1.1035773 2:8.0939234 
100 1:1.1135773 2:8.0737017 
100 1:1.1235773 2:8.053478 
100 1:1.1335773 2:8.0332523 
100 1:1.1435773 2:8.0130246 
100 1:1.1535773 2:7.9927948 
100 1:1.1635773 2:7.9725631 
100 1:1.1735773 2:7.9523294 
100 1:1.1835773 2:7.9320937 
100 1:1.1935773 2:7.911856 
100 1:1.2035773 2:7.8916163 
100 1:1.2135773 2:7.8713746 
100 1:1.2235773 2:7.8511308 
100 1:1.2335773 2:7.8308851 
100 1:1.2435773 2:7.8106374 
100 1:1.2535773 2:7.7903877 
100 1:1.2635773 2:7.770136 
100 1:1.2735773 2:7.7498823 
100 1:1.2835773 2:7.7296265 
100 1:1.2935773 2:7.7093688 
100 1:1.3035773 2:7.6891091 
100 1:1.3135773 2:7.6688474 
100 1:1.3235773 2:7.6485837 
100 1:1.3335773 2:7.628318 
100 1:1.3435773 2:7.6080503 
100 1:1.3535773 2:7.5877805 
100 1:1.3635773 2:7.5675088 
100 1:1.3735773 2:7.5472351 
100 1:1.3835773 2:7.5269594 
100 1:1.3935773 2:7.5066817 
100 1:1.4035773 2:7.486402 
100 1:1.4135773 2:7.4661202 
100 1:1.4235773 2:7.4458365 
100 1:1.4335773 2:7.4255508 
100 1:1.4435773 2:7.4052631 
100 1:1.4535773 2:7.3849734 
100 1:1.4635773 2:7.3646817 
100 1:1.4735773 2:7.344388 
100 1:1.4835773 2:7.3240922 
100 1:1.4935773 2:7.3037945 
100 1:1.5035773 2:7.2834948 
100 1:1.5135773 2:7.2631931 
100 1:1.5235773 2:7.2428894 
100 1:1.5335773 2:7.2225837 
100 1:1.5435773 2:7.2022759 
100 1:1.5535773 2:7.1819662 
100 1:1.5635773 2:7.1616545 
100 1:1.5735773 2:7.1413408 
100 1:1.5835773 2:7.1210251 
100 1:1.5935773 2:7.1007074 
100 1:1.6035773 2:7.0803877 
100 1:1.6135773 2:7.0600659 
100 1:1.6235773 2:7.0397422 
100 1:1.6335773 2:7.0194165 
100 1:1.6435773 2:6.9990888 
100 1:1.6535773 2:6.9787591 
100 1:1.6635773 2:6.9584274 
100 1:1.6735773 2:6.9380936 
100 1:1.6835773 2:6.9177579 
100 1:1.6935773 2:6.8974202 
100 1:1.7035773 2:6.8770805 
100 1:1.7135773 2:6.8567388 
100 1:1.7235773 2:6.8363951 
100 1:1.7335773 2:6.8160494 
100 1:1.7435773 2:6.7957016 
100 1:1.7535773 2:6.7753519 
100 1:1.7635773 2:6.7550002 
100 1:1.7735773 2:6.7346465 
100 1:1.7835773 2:6.7142908 
100 1:1.7935773 2:6.6939331 
100 1:1.8035773 2:6.6735733 
100 1:1.8135773 2:6.6532116 
100 1:1.8235773 2:6.6328479 
100 1:1.8335773 2:6.6124822 
100 1:1.8435773 2:6.5921145 
100 1:1.8535773 2:6.5717448 
100 1:1.8635773 2:6.5513731 
100 1:1.8735773 2:6.5309993 
100 1:1.8835773 2:6.5106236 
100 1:1.8935773 2:6.4902459 
100 1:1.9035773 2:6.4698662 
100 1:1.9135773 2:6.4494845 
100 1:1.9235773 2:6.4291008 
100 1:1.9335773 2:6.408715 
100 1:1.9435773 2:6.3883273 
100 1:1.9535773 2:6.3679376 
100 1:1.9635773 2:6.3475459 
100 1:1.9735773 2:6.3271522 
100 1:1.9835773 2:6.3067565 
100 1:1.9935773 2:6.2863588 
100 1:2.0035773 2:6.265959 
100 1:2.0135773 2:6.2455573 
100 1:2.0235773 2:6.2251536 
100 1:2.0335773 2:6.2047479 
100 1:2.0435773 2:6.1843402 
100 1:2.0535773 2:6.1639305 
100 1:2.0635773 2:6.1435187 
100 1:2.0735773 2:6.123105 
100 1:2.0835773 2:6.1026893 
100 1:2.0935773 2:6.0822716 
100 1:2.1035773 2:6.0618519 
100 1:2.1135773 2:6.0414302 
100 1:2.1235773 2:6.0210064 
100 1:2.1335773 2:6.0005807 
100 1:2.1435773 2:5.980153 
100 1:2.1535773 2:5.9597233 
100 1:2.1635773 2:5.9392916 
100 1:2.1735773 2:5.9188579 
100 1:2.1835773 2:5.8984222 
100 1:2.1935773 2:5.8779844 
100 1:2.2035773 2:5.8575447 
100 1:2.2135773 2:5.837103 
100 1:2.2235773 2:5.8166593 
100 1:2.2335773 2:5.7962136 
100 1:2.2435773 2:5.7757659 
100 1:2.2535773 2:5.7553161 
100 1:2.2635773 2:5.7348644 
100 1:2.2735773 2:5.7144107 
100 1:2.2835773 2:5.693955 
100 1:2.2935773 2:5.6734973 
100 1:2.3035773 2:5.6530376 
100 1:2.3135773 2:5.6325759 
100 1:2.3235773 2:5.6121121 
100 1:2.3335773 2:5.5916464 
100 1:2.3435773 2:5.5711787 
100 1:2.3535773 2:5.550709 
100 1:2.3635773 2:5.5302373 
100 1:2.3735773 2:5.5097636 
100 1:2.3835773 2:5.4892878 
100 1:2.3935773 2:5.4688101 
100 1:2.4035773 2:5.4483304 
100 1:2.4135773 2:5.4278487 
100 1:2.4235773 2:5.407365 
100 1:2.4335773 2:5.3868793 
100 1:2.4435773 2:5.3663916 
100 1:2.4535773 2:5.3459018 
100 1:2.4635773 2:5.3254101 
100 1:2.4735773 2:5.3049164 
100 1:2.4835773 2:5.2844207 
100 1:2.4935773 2:5.263923 
100 1:2.5035773 2:5.2434233 
100 1:2.5135773 2:5.2229215 
100 1:2.5235773 2:5.2024178 
100 1:2.5335773 2:5.1819121 
100 1:2.5435773 2:5.1614044 
100 1:2.5535773 2:5.1408947 
100 1:2.5635773 2:5.120383 
100 1:2.5735773 2:5.0998693 
100 1:2.5835773 2:5.0793535 
100 1:2.5935773 2:5.0588358 
100 1:2.6035773 2:5.0383161 
100 1:2.6135773 2:5.0177944 
100 1:2.6235773 2:4.9972707 
100 1:2.6335773 2:4.976745 
100 1:2.6435773 2:4.9562172 
100 1:2.6535773 2:4.9356875 
100 1:2.6635773 2:4.9151558 
100 1:2.6735773 2:4.8946221 
100 1:2.6835773 2:4.8740864 
100 1:2.6935773 2:4.8535487 
100 1:2.7035773 2:4.833009 
100 1:2.7135773 2:4.8124672 
100 1:2.7235773 2:4.7919235 
100 1:2.7335773 2:4.7713778 
100 1:2.7435773 2:4.7508301 
100 1:2.7535773 2:4.7302804 
100 1:2.7635773 2:4.7097287 
100 1:2.7735773 2:4.6891749 
100 1:2.7835773 2:4.6686192 
100 1:2.7935773 2:4.6480615 
100 1:2.8035773 2:4.6275018 
100 1:2.8135773 2:4.6069401 
100 1:2.8235773 2:4.5863764 
100 1:2.8335773 2:4.5658107 
100 1:2.8435773 2:4.5452429 
100 1:2.8535773 2:4.5246732 
100 1:2.8635773 2:4.5041015 
100 1:2.8735773 2:4.4835278 
100 1:2.8835773 2:4.4629521 
100 1:2.8935773 2:4.4423744 
100 1:2.9035773 2:4.4217946 
100 1:2.9135773 2:4.4012129 
100 1:2.9235773 2:4.3806292 
100 1:2.9335773 2:4.3600435 
100 1:2.9435773 2:4.3394558 
100 1:2.9535773 2:4.3188661 
100 1:2.9635773 2:4.2982744 
100 1:2.9735773 2:4.2776806 
100 1:2.9835773 2:4.2570849 
100 1:2.9935773 2:4.2364872 
100 1:3.0035773 2:4.2158875 
100 1:3.0135773 2:4.1952858 
100 1:3.0235773 2:4.1746821 
100 1:3.0335773 2:4.1540763 
100 1:3.0435773 2:4.1334686 
100 1:3.0535773 2:4.1128589 
100 1:3.0635773 2:4.0922472 
100 1:3.0735773 2:4.0716335 
100 1:3.0835773 2:4.0510178 
100 1:3.0935773 2:4.0304001 
100 1:3.1035773 2:4.0097803 
100 1:3.1135773 2:3.9891586 
100 1:3.1235773 2:3.9685349 
100 1:3.1335773 2:3.9479092 
100 1:3.1435773 2:3.9272815 
100 1:3.1535773 2:3.9066518 
100 1:3.1635773 2:3.88602 
100 1:3.1735773 2:3.8653863 
100 1:3.1835773 2:3.8447506 
100 1:3.1935773 2:3.8241129 
100 1:3.2035773 2:3.8034732 
100 1:3.2135773 2:3.7828315 
100 1:3.2235773 2:3.7621877 
100 1:3.2335773 2:3.741542 
100 1:3.2435773 2:3.7208943 
100 1:3.2535773 2:3.7002446 
100 1:3.2635773 2:3.6795929 
100 1:3.2735773 2:3.6589392 
100 1:3.2835773 2:3.6382835 
100 1:3.2935773 2:3.6176257 
100 1:3.3035773 2:3.596966 
100 1:3.3135773 2:3.5763043 
100 1:3.3235773 2:3.5556406 
100 1:3.3335773 2:3.5349749 
100 1:3.3435773 2:3.5143072 
100 1:3.3535773 2:3.4936374 
100 1:3.3635773 2:3.4729657 
100 1:3.3735773 2:3.452292 
100 1:3.3835773 2:3.4316163 
100 1:3.3935773 2:3.4109386 
100 1:3.4035773 2:3.3902589 
100 1:3.4135773 2:3.3695772 
100 1:3.4235773 2:3.3488934 
100 1:3.4335773 2:3.3282077 
100 1:3.4435773 2:3.30752 
100 1:3.4535773 2:3.2868303 
100 1:3.4635773 2:3.2661386 
100 1:3.4735773 2:3.2454449 
100 1:3.4835773 2:3.2247491 
100 1:3.4935773 2:3.2040514 
100 1:3.5035773 2:3.1833517 
100 1:3.5135773 2:3.16265 
100 1:3.5235773 2:3.1419463 
100 1:3.5335773 2:3.1212406 
100 1:3.5435773 2:3.1005329 
100 1:3.5535773 2:3.0798231 
100 1:3.5635773 2:3.0591114 
100 1:3.5735773 2:3.0383977 
100 1:3.5835773 2:3.017682 
100 1:3.5935773 2:2.9969643 
100 1:3.6035773 2:2.9762446 
100 1:3.6135773 2:2.9555228 
100 1:3.6235773 2:2.9347991 
100 1:3.6335773 2:2.9140734 
100 1:3.6435773 2:2.8933457 
100 1:3.6535773 2:2.872616 
100 1:3.6635773 2:2.8518843 
100 1:3.6735773 2:2.8311506 
100 1:3.6835773 2:2.8104148 
100 1:3.6935773 2:2.7896771 
100 1:3.7035773 2:2.7689374 
100 1:3.7135773 2:2.7481957 
100 1:3.7235773 2:2.727452 
100 1:3.7335773 2:2.7067063 
100 1:3.7435773 2:2.6859585 
100 1:3.7535773 2:2.6652088 
100 1:3.7635773 2:2.6444571 
100 1:3.7735773 2:2.6237034 
100 1:3.7835773 2:2.6029477 
100 1:3.7935773 2:2.58219 
100 1:3.8035773 2:2.5614303 
100 1:3.8135773 2:2.5406685 
100 1:3.8235773 2:2.5199048 
100 1:3.8335773 2:2.4991391 
100 1:3.8435773 2:2.4783714 
100 1:3.8535773 2:2.4576017 
100 1:3.8635773 2:2.43683 
100 1:3.8735773 2:2.4160562 
100 1:3.8835773 2:2.3952805 
100 1:3.8935773 2:2.3745028 
100 1:3.9035773 2:2.3537231 
100 1:3.9135773 2:2.3329414 
100 1:3.9235773 2:2.3121577 
100 1:3.9335773 2:2.291372 
100 1:3.9435773 2:2.2705842 
100 1:3.9535773 2:2.2497945 
100 1:3.9635773 2:2.2290028 
100 1:3.9735773 2:2.2082091 
100 1:3.9835773 2:2.1874134 
100 1:3.9935773 2:2.1666157 
100 1:4.0035773 2:2.1458159 
100 1:4.0135773 2:2.1250142 
100 1:4.0235773 2:2.1042105 
100 1:4.0335773 2:2.0834048 
100 1:4.0435773 2:2.0625971 
100 1:4.0535773 2:2.0417874 
100 1:4.0635773 2:2.0209757 
100 1:4.0735773 2:2.0001619 
100 1:4.0835773 2:1.9793462 
100 1:4.0935773 2:1.9585285 
100 1:4.1035773 2:1.9377088 
100 1:4.1135773 2:1.9168871 
100 1:4.1235773 2:1.8960634 
100 1:4.1335773 2:1.8752376 
100 1:4.1435773 2:1.8544099 
100 1:4.1535773 2:1.8335802 
100 1:4.1635773 2:1.8127485 
100 1:4.1735773 2:1.7919148 
100 1:4.1835773 2:1.7710791 
100 1:4.1935773 2:1.7502414 
100 1:4.2035773 2:1.7294016 
100 1:4.2135773 2:1.7085599 
100 1:4.2235773 2:1.6877162 
100 1:4.2335773 2:1.6668705 
100 1:4.2435773 2:1.6460228 
100 1:4.2535773 2:1.6251731 
100 1:4.2635773 2:1.6043213 
100 1:4.2735773 2:1.5834676 
100 1:4.2835773 2:1.5626119 
100 1:4.2935773 2:1.5417542 
100 1:4.3035773 2:1.5208945 
100 1:4.3135773 2:1.5000328 
100 1:4.3235773 2:1.479169 
100 1:4.3335773 2:1.4583033 
100 1:4.3435773 2:1.4374356 
100 1:4.3535773 2:1.4165659 
100 1:4.3635773 2:1.3956942 
100 1:4.3735773 2:1.3748205 
100 1:4.3835773 2:1.3539448 
100 1:4.3935773 2:1.333067 
100 1:4.4035773 2:1.3121873 
100 1:4.4135773 2:1.2913056 
100 1:4.4235773 2:1.2704219 
100 1:4.4335773 2:1.2495362 
100 1:4.4435773 2:1.2286485 
100 1:4.4535773 2:1.2077587 
100 1:4.4635773 2:1.186867 
100 1:4.4735773 2:1.1659733 
100 1:4.4835773 2:1.1450776 
100 1:4.4935773 2:1.1241799 
100 1:4.5035773 2:1.1032802 
100 1:4.5135773 2:1.0823785 
100 1:4.5235773 2:1.0614747 
100 1:4.5335773 2:1.040569 
100 1:4.5435773 2:1.0196613 
100 1:4.5535773 2:0.99875159 
100 1:4.5635773 2:0.97783988 
100 1:4.5735773 2:0.95692616 
100 1:4.5835773 2:0.93601045 
100 1:4.5935773 2:0.91509273 
100 1:4.6035773 2:0.89417302 
100 1:4.6135773 2:0.8732513 
100 1:4.6235773 2:0.85232759 
100 1:4.6335773 2:0.83140187 
100 1:4.6435773 2:0.81047416 
100 1:4.6535773 2:0.78954444 
100 1:4.6635773 2:0.76861272 
100 1:4.6735773 2:0.74767901 
100 1:4.6835773 2:0.72674329 
100 1:4.6935773 2:0.70580558 
100 1:4.7035773 2:0.68486586 
100 1:4.7135773 2:0.66392415 
100 1:4.7235773 2:0.64298043 
100 1:4.7335773 2:0.62203472 
100 1:4.7435773 2:0.601087 
100 1:4.7535773 2:0.58013729 
100 1:4.7635773 2:0.55918557 
100 1:4.7735773 2:0.53823185 
100 1:4.7835773 2:0.51727614 
100 1:4.7935773 2:0.49631842 
100 1:4.8035773 2:0.47535871 
100 1:4.8135773 2:0.45439699 
100 1:4.8235773 2:0.43343328 
100 1:4.8335773 2:0.41246756 
100 1:4.8435773 2:0.39149985 
100 1:4.8535773 2:0.37053013 
100 1:4.8635773 2:0.34955842 
100 1:4.8735773 2:0.3285847 
100 1:4.8835773 2:0.30760898 
100 1:4.8935773 2:0.28663127 
100 1:4.9035773 2:0.26565155 
100 1:4.9135773 2:0.24466984 
100 1:4.9235773 2:0.22368612 
70.544997660986851 1:4.9335773 2:0.20270041 
100 1:0.057353115 2:9.2489705 
100 1:0.067353115 2:9.228958 
100 1:0.077353115 2:9.2089435 
100 1:0.087353115 2:9.188927 
100 1:0.097353115 2:9.1689086 
100 1:0.10735312 2:9.1488881 
100 1:0.11735312 2:9.1288656 
100 1:0.12735312 2:9.1088412 
100 1:0.13735312 2:9.0888147 
100 1:0.14735312 2:9.0687862 
100 1:0.15735312 2:9.0487558 
100 1:0.16735312 2:9.0287233 
100 1:0.17735312 2:9.0086888 
100 1:0.18735312 2:8.9886523 
100 1:0.19735312 2:8.9686139 
100 1:0.20735312 2:8.9485734 
100 1:0.21735312 2:8.9285309 
100 1:0.22735312 2:8.9084865 
100 1:0.23735312 2:8.88844 
100 1:0.24735312 2:8.8683915 
100 1:0.25735312 2:8.848341 
100 1:0.26735312 2:8.8282886 
100 1:0.27735312 2:8.8082341 
100 1:0.28735312 2:8.7881776 
100 1:0.29735312 2:8.7681192 
100 1:0.30735312 2:8.7480587 
100 1:0.31735312 2:8.7279962 
100 1:0.32735312 2:8.7079318 
100 1:0.33735312 2:8.6878653 
100 1:0.34735312 2:8.6677968 
100 1:0.35735312 2:8.6477263 
100 1:0.36735312 2:8.6276539 
100 1:0.37735312 2:8.6075794 
100 1:0.38735312 2:8.5875029 
100 1:0.39735312 2:8.5674245 
100 1:0.40735312 2:8.547344 
100 1:0.41735312 2:8.5272615 
100 1:0.42735312 2:8.507177 
100 1:0.43735312 2:8.4870906 
100 1:0.44735312 2:8.4670021 
100 1:0.45735312 2:8.4469116 
100 1:0.46735312 2:8.4268192 
100 1:0.47735312 2:8.4067247 
100 1:0.48735312 2:8.3866282 
100 1:0.49735312 2:8.3665298 
100 1:0.50735312 2:8.3464293 
100 1:0.51735312 2:8.3263268 
100 1:0.52735312 2:8.3062223 
100 1:0.53735312 2:8.2861159 
100 1:0.54735312 2:8.2660074 
100 1:0.55735312 2:8.2458969 
100 1:0.56735312 2:8.2257845 
100 1:0.57735312 2:8.20567 
100 1:0.58735312 2:8.1855535 
100 1:0.59735312 2:8.165435 
100 1:0.60735312 2:8.1453146 
100 1:0.61735312 2:8.1251921 
100 1:0.62735312 2:8.1050676 
100 1:0.63735312 2:8.0849412 
100 1:0.64735312 2:8.0648127 
100 1:0.65735312 2:8.0446822 
100 1:0.66735312 2:8.0245498 
100 1:0.67735312 2:8.0044153 
100 1:0.68735312 2:7.9842788 
100 1:0.69735312 2:7.9641403 
100 1:0.70735312 2:7.9439999 
100 1:0.71735312 2:7.9238574 
100 1:0.72735312 2:7.9037129 
100 1:0.73735312 2:7.8835665 
100 1:0.74735312 2:7.863418 
100 1:0.75735312 2:7.8432675 
100 1:0.76735312 2:7.823115 
100 1:0.77735312 2:7.8029606 
100 1:0.78735312 2:7.7828041 
100 1:0.79735312 2:7.7626456 
100 1:0.80735312 2:7.7424852 
100 1:0.81735312 2:7.7223227 
100 1:0.82735312 2:7.7021582 
100 1:0.83735312 2:7.6819918 
100 1:0.84735312 2:7.6618233 
100 1:0.85735312 2:7.6416528 
100 1:0.86735312 2:7.6214803 
100 1:0.87735312 2:7.6013059 
100 1:0.88735312 2:7.5811294 
100 1:0.89735312 2:7.5609509 
100 1:0.90735312 2:7.5407705 
100 1:0.91735312 2:7.520588 
100 1:0.92735312 2:7.5004035 
100 1:0.93735312 2:7.480217 
100 1:0.94735312 2:7.4600286 
100 1:0.95735312 2:7.4398381 
100 1:0.96735312 2:7.4196456 
100 1:0.97735312 2:7.3994512 
100 1:0.98735312 2:7.3792547 
100 1:0.99735312 2:7.3590562 
100 1:1.0073531 2:7.3388558 
100 1:1.0173531 2:7.3186533 
100 1:1.0273531 2:7.2984488 
100 1:1.0373531 2:7.2782423 
100 1:1.0473531 2:7.2580339 
100 1:1.0573531 2:7.2378234 
100 1:1.0673531 2:7.2176109 
100 1:1.0773531 2:7.1973965 
100 1:1.0873531 2:7.17718 
100 1:1.0973531 2:7.1569615 
100 1:1.1073531 2:7.136741 
100 1:1.1173531 2:7.1165186 
100 1:1.1273531 2:7.0962941 
100 1:1.1373531 2:7.0760676 
100 1:1.1473531 2:7.0558392 
100 1:1.1573531 2:7.0356087 
100 1:1.1673531 2:7.0153762 
100 1:1.1773531 2:6.9951417 
100 1:1.1873531 2:6.9749053 
100 1:1.1973531 2:6.9546668 
100 1:1.2073531 2:6.9344263 
100 1:1.2173531 2:6.9141839 
100 1:1.2273531 2:6.8939394 
100 1:1.2373531 2:6.8736929 
100 1:1.2473531 2:6.8534445 
100 1:1.2573531 2:6.833194 
100 1:1.2673531 2:6.8129415 
100 1:1.2773531 2:6.792687 
100 1:1.2873531 2:6.7724306 
100 1:1.2973531 2:6.7521721 
100 1:1.3073531 2:6.7319116 
100 1:1.3173531 2:6.7116492 
100 1:1.3273531 2:6.6913847 
100 1:1.3373531 2:6.6711182 
100 1:1.3473531 2:6.6508497 
100 1:1.3573531 2:6.6305793 
100 1:1.3673531 2:6.6103068 
100 1:1.3773531 2:6.5900323 
100 1:1.3873531 2:6.5697559 
100 1:1.3973531 2:6.5494774 
100 1:1.4073531 2:6.5291969 
100 1:1.4173531 2:6.5089145 
100 1:1.4273531 2:6.48863 
100 1:1.4373531 2:6.4683435 
100 1:1.4473531 2:6.448055 
100 1:1.4573531 2:6.4277646 
100 1:1.4673531 2:6.4074721 
100 1:1.4773531 2:6.3871776 
100 1:1.4873531 2:6.3668812 
100 1:1.4973531 2:6.3465827 
100 1:1.5073531 2:6.3262822 
100 1:1.5173531 2:6.3059797 
100 1:1.5273531 2:6.2856753 
100 1:1.5373531 2:6.2653688 
100 1:1.5473531 2:6.2450603 
100 1:1.5573531 2:6.2247499 
100 1:1.5673531 2:6.2044374 
100 1:1.5773531 2:6.1841229 
100 1:1.5873531 2:6.1638065 
100 1:1.5973531 2:6.143488 
100 1:1.6073531 2:6.1231675 
100 1:1.6173531 2:6.102845 
100 1:1.6273531 2:6.0825206 
100 1:1.6373531 2:6.0621941 
100 1:1.6473531 2:6.0418656 
100 1:1.6573531 2:6.0215352 
100 1:1.6673531 2:6.0012027 
100 1:1.6773531 2:5.9808682 
100 1:1.6873531 2:5.9605317 
100 1:1.6973531 2:5.9401933 
100 1:1.7073531 2:5.9198528 
100 1:1.7173531 2:5.8995103 
100 1:1.7273531 2:5.8791659 
100 1:1.7373531 2:5.8588194 
100 1:1.7473531 2:5.8384709 
100 1:1.7573531 2:5.8181205 
100 1:1.7673531 2:5.797768 
100 1:1.7773531 2:5.7774135 
100 1:1.7873531 2:5.757057 
100 1:1.7973531 2:5.7366986 
100 1:1.8073531 2:5.7163381 
100 1:1.8173531 2:5.6959756 
100 1:1.8273531 2:5.6756112 
100 1:1.8373531 2:5.6552447 
100 1:1.8473531 2:5.6348762 
100 1:1.8573531 2:5.6145057 
100 1:1.8673531 2:5.5941333 
100 1:1.8773531 2:5.5737588 
100 1:1.8873531 2:5.5533823 
100 1:1.8973531 2:5.5330039 
100 1:1.9073531 2:5.5126234 
100 1:1.9173531 2:5.4922409 
100 1:1.9273531 2:5.4718565 
100 1:1.9373531 2:5.45147 
100 1:1.9473531 2:5.4310815 
100 1:1.9573531 2:5.410691 
100 1:1.9673531 2:5.3902986 
100 1:1.9773531 2:5.3699041 
100 1:1.9873531 2:5.3495076 
100 1:1.9973531 2:5.3291092 
100 1:2.0073531 2:5.3087087 
100 1:2.0173531 2:5.2883062 
100 1:2.0273531 2:5.2679017 
100 1:2.0373531 2:5.2474953 
100 1:2.0473531 2:5.2270868 
100 1:2.0573531 2:5.2066763 
100 1:2.0673531 2:5.1862639 
100 1:2.0773531 2:5.1658494 
100 1:2.0873531 2:5.1454329 
100 1:2.0973531 2:5.1250145 
100 1:2.1073531 2:5.104594 
100 1:2.1173531 2:5.0841715 
100 1:2.1273531 2:5.063747 
100 1:2.1373531 2:5.0433206 
100 1:2.1473531 2:5.0228921 
100 1:2.1573531 2:5.0024616 
100 1:2.1673531 2:4.9820292 
100 1:2.1773531 2:4.9615947 
100 1:2.1873531 2:4.9411582 
100 1:2.1973531 2:4.9207197 
100 1:2.2073531 2:4.9002793 
100 1:2.2173531 2:4.8798368 
100 1:2.2273531 2:4.8593923 
100 1:2.2373531 2:4.8389459 
100 1:2.2473531 2:4.8184974 
100 1:2.2573531 2:4.7980469 
100 1:2.2673531 2:4.7775945 
100 1:2.2773531 2:4.75714 
100 1:2.2873531 2:4.7366835 
100 1:2.2973531 2:4.716225 
100 1:2.3073531 2:4.6957646 
100 1:2.3173531 2:4.6753021 
100 1:2.3273531 2:4.6548376 
100 1:2.3373531 2:4.6343712 
100 1:2.3473531 2:4.6139027 
100 1:2.3573531 2:4.5934322 
100 1:2.3673531 2:4.5729597 
100 1:2.3773531 2:4.5524853 
100 1:2.3873531 2:4.5320088 
100 1:2.3973531 2:4.5115303 
100 1:2.4073531 2:4.4910499 
100 1:2.4173531 2:4.4705674 
100 1:2.4273531 2:4.4500829 
100 1:2.4373531 2:4.4295965 
100 1:2.4473531 2:4.409108 
100 1:2.4573531 2:4.3886175 
100 1:2.4673531 2:4.368125 
100 1:2.4773531 2:4.3476306 
100 1:2.4873531 2:4.3271341 
100 1:2.4973531 2:4.3066356 
100 1:2.5073531 2:4.2861352 
100 1:2.5173531 2:4.2656327 
100 1:2.5273531 2:4.2451282 
100 1:2.5373531 2:4.2246217 
100 1:2.5473531 2:4.2041133 
100 1:2.5573531 2:4.1836028 
100 1:2.5673531 2:4.1630903 
100 1:2.5773531 2:4.1425759 
100 1:2.5873531 2:4.1220594 
100 1:2.5973531 2:4.1015409 
100 1:2.6073531 2:4.0810205 
100 1:2.6173531 2:4.060498 
100 1:2.6273531 2:4.0399735 
100 1:2.6373531 2:4.019447 
100 1:2.6473531 2:3.9989186 
100 1:2.6573531 2:3.9783881 
100 1:2.6673531 2:3.9578556 
100 1:2.6773531 2:3.9373212 
100 1:2.6873531 2:3.9167847 
100 1:2.6973531 2:3.8962462 
100 1:2.7073531 2:3.8757057 
100 1:2.7173531 2:3.8551633 
100 1:2.7273531 2:3.8346188 
100 1:2.7373531 2:3.8140723 
100 1:2.7473531 2:3.7935239 
100 1:2.7573531 2:3.7729734 
100 1:2.7673531 2:3.7524209 
100 1:2.7773531 2:3.7318664 
100 1:2.7873531 2:3.71131 
100 1:2.7973531 2:3.6907515 
100 1:2.8073531 2:3.670191 
100 1:2.8173531 2:3.6496286 
100 1:2.8273531 2:3.6290641 
100 1:2.8373531 2:3.6084976 
100 1:2.8473531 2:3.5879292 
100 1:2.8573531 2:3.5673587 
100 1:2.8673531 2:3.5467862 
100 1:2.8773531 2:3.5262117 
100 1:2.8873531 2:3.5056353 
100 1:2.8973531 2:3.4850568 
100 1:2.9073531 2:3.4644763 
100 1:2.9173531 2:3.4438939 
100 1:2.9273531 2:3.4233094 
100 1:2.9373531 2:3.4027229 
100 1:2.9473531 2:3.3821344 
100 1:2.9573531 2:3.361544 
100 1:2.9673531 2:3.3409515 
100 1:2.9773531 2:3.320357 
100 1:2.9873531 2:3.2997606 
100 1:2.9973531 2:3.2791621 
100 1:3.0073531 2:3.2585616 
100 1:3.0173531 2:3.2379592 
100 1:3.0273531 2:3.2173547 
100 1:3.0373531 2:3.1967482 
100 1:3.0473531 2:3.1761397 
100 1:3.0573531 2:3.1555293 
100 1:3.0673531 2:3.1349168 
100 1:3.0773531 2:3.1143023 
100 1:3.0873531 2:3.0936859 
100 1:3.0973531 2:3.0730674 
100 1:3.1073531 2:3.0524469 
100 1:3.1173531 2:3.0318244 
100 1:3.1273531 2:3.0112 
100 1:3.1373531 2:2.9905735 
100 1:3.1473531 2:2.969945 
100 1:3.1573531 2:2.9493146 
100 1:3.1673531 2:2.9286821 
100 1:3.1773531 2:2.9080476 
100 1:3.1873531 2:2.8874112 
100 1:3.1973531 2:2.8667727 
100 1:3.2073531 2:2.8461322 
100 1:3.2173531 2:2.8254897 
100 1:3.2273531 2:2.8048453 
100 1:3.2373531 2:2.7841988 
100 1:3.2473531 2:2.7635503 
100 1:3.2573531 2:2.7428999 
100 1:3.2673531 2:2.7222474 
100 1:3.2773531 2:2.7015929 
100 1:3.2873531 2:2.6809364 
100 1:3.2973531 2:2.660278 
100 1:3.3073531 2:2.6396175 
100 1:3.3173531 2:2.618955 
100 1:3.3273531 2:2.5982906 
100 1:3.3373531 2:2.5776241 
100 1:3.3473531 2:2.5569556 
100 1:3.3573531 2:2.5362852 
100 1:3.3673531 2:2.5156127 
100 1:3.3773531 2:2.4949382 
100 1:3.3873531 2:2.4742617 
100 1:3.3973531 2:2.4535833 
100 1:3.4073531 2:2.4329028 
100 1:3.4173531 2:2.4122203 
100 1:3.4273531 2:2.3915359 
100 1:3.4373531 2:2.3708494 
100 1:3.4473531 2:2.3501609 
100 1:3.4573531 2:2.3294704 
100 1:3.4673531 2:2.308778 
100 1:3.4773531 2:2.2880835 
100 1:3.4873531 2:2.267387 
100 1:3.4973531 2:2.2466886 
100 1:3.5073531 2:2.2259881 
100 1:3.5173531 2:2.2052856 
100 1:3.5273531 2:2.1845812 
100 1:3.5373531 2:2.1638747 
100 1:3.5473531 2:2.1431662 
100 1:3.5573531 2:2.1224557 
100 1:3.5673531 2:2.1017433 
100 1:3.5773531 2:2.0810288 
100 1:3.5873531 2:2.0603123 
100 1:3.5973531 2:2.0395939 
100 1:3.6073531 2:2.0188734 
100 1:3.6173531 2:1.9981509 
100 1:3.6273531 2:1.9774264 
100 1:3.6373531 2:1.9567 
100 1:3.6473531 2:1.9359715 
100 1:3.6573531 2:1.915241 
100 1:3.6673531 2:1.8945086 
100 1:3.6773531 2:1.8737741 
100 1:3.6873531 2:1.8530376 
100 1:3.6973531 2:1.8322992 
100 1:3.7073531 2:1.8115587 
100 1:3.7173531 2:1.7908162 
100 1:3.7273531 2:1.7700717 
100 1:3.7373531 2:1.7493253 
100 1:3.7473531 2:1.7285768 
100 1:3.7573531 2:1.7078263 
100 1:3.7673531 2:1.6870739 
100 1:3.7773531 2:1.6663194 
100 1:3.7873531 2:1.6455629 
100 1:3.7973531 2:1.6248044 
100 1:3.8073531 2:1.604044 
100 1:3.8173531 2:1.5832815 
100 1:3.8273531 2:1.562517 
100 1:3.8373531 2:1.5417506 
100 1:3.8473531 2:1.5209821 
100 1:3.8573531 2:1.5002116 
100 1:3.8673531 2:1.4794392 
100 1:3.8773531 2:1.4586647 
100 1:3.8873531 2:1.4378882 
100 1:3.8973531 2:1.4171097 
100 1:3.9073531 2:1.3963293 
100 1:3.9173531 2:1.3755468 
100 1:3.9273531 2:1.3547623 
100 1:3.9373531 2:1.3339759 
100 1:3.9473531 2:1.3131874 
100 1:3.9573531 2:1.2923969 
100 1:3.9673531 2:1.2716044 
100 1:3.9773531 2:1.25081 
100 1:3.9873531 2:1.2300135 
100 1:3.9973531 2:1.209215 
100 1:4.0073531 2:1.1884146 
100 1:4.0173531 2:1.1676121 
100 1:4.0273531 2:1.1468076 
100 1:4.0373531 2:1.1260012 
100 1:4.0473531 2:1.1051927 
100 1:4.0573531 2:1.0843822 
100 1:4.0673531 2:1.0635697 
100 1:4.0773531 2:1.0427553 
100 1:4.0873531 2:1.0219388 
100 1:4.0973531 2:1.0011203 
100 1:4.1073531 2:0.98029986 
100 1:4.1173531 2:0.95947739 
100 1:4.1273531 2:0.93865292 
100 1:4.1373531 2:0.91782645 
100 1:4.1473531 2:0.89699797 
100 1:4.1573531 2:0.8761675 
100 1:4.1673531 2:0.85533503 
100 1:4.1773531 2:0.83450056 
100 1:4.1873531 2:0.81366409 
100 1:4.1973531 2:0.79282562 
100 1:4.2073531 2:0.77198515 
100 1:4.2173531 2:0.75114268 
100 1:4.2273531 2:0.73029821 
100 1:4.2373531 2:0.70945174 
100 1:4.2473531 2:0.68860327 
100 1:4.2573531 2:0.6677528 
100 1:4.2673531 2:0.64690033 
100 1:4.2773531 2:0.62604586 
100 1:4.2873531 2:0.60518939 
100 1:4.2973531 2:0.58433092 
100 1:4.3073531 2:0.56347044 
100 1:4.3173531 2:0.54260797 
100 1:4.3273531 2:0.5217435 
100 1:4.3373531 2:0.50087703 
100 1:4.3473531 2:0.48000856 
100 1:4.3573531 2:0.45913809 
100 1:4.3673531 2:0.43826562 
100 1:4.3773531 2:0.41739115 
100 1:4.3873531 2:0.39651468 
100 1:4.3973531 2:0.37563621 
100 1:4.4073531 2:0.35475574 
100 1:4.4173531 2:0.33387327 
100 1:4.4273531 2:0.3129888 
100 1:4.4373531 2:0.29210233 
100 1:4.4473531 2:0.27121386 
100 1:4.4573531 2:0.25032339 
100 1:4.4673531 2:0.22943091 
100 1:4.4773531 2:0.20853644 
100 1:4.4873531 2:0.18763997 
100 1:4.4973531 2:0.1667415 
100 1:4.5073531 2:0.14584103 
100 1:4.5173531 2:0.12493856 
100 1:4.5273531 2:0.10403409 
100 1:4.5373531 2:0.08312762 
100 1:4.5473531 2:0.06221915 
100 1:4.5573531 2:0.041308679 
100 1:4.5673531 2:0.020396208 
100 1:0.05676722 2:5.0576848 
100 1:0.06676722 2:5.0376724 
100 1:0.07676722 2:5.017658 
100 1:0.08676722 2:4.9976417 
100 1:0.09676722 2:4.9776233 
100 1:0.10676722 2:4.957603 
100 1:0.11676722 2:4.9375806 
100 1:0.12676722 2:4.9175563 
100 1:0.13676722 2:4.8975299 
100 1:0.14676722 2:4.8775016 
100 1:0.15676722 2:4.8574712 
100 1:0.16676722 2:4.8374389 
100 1:0.17676722 2:4.8174045 
100 1:0.18676722 2:4.7973682 
100 1:0.19676722 2:4.7773298 
100 1:0.20676722 2:4.7572895 
100 1:0.21676722 2:4.7372471 
100 1:0.22676722 2:4.7172027 
100 1:0.23676722 2:4.6971564 
100 1:0.24676722 2:4.677108 
100 1:0.25676722 2:4.6570577 
100 1:0.26676722 2:4.6370053 
100 1:0.27676722 2:4.616951 
100 1:0.28676722 2:4.5968946 
100 1:0.29676722 2:4.5768363 
100 1:0.30676722 2:4.5567759 
100 1:0.31676722 2:4.5367136 
100 1:0.32676722 2:4.5166492 
100 1:0.33676722 2:4.4965829 
100 1:0.34676722 2:4.4765145 
100 1:0.35676722 2:4.4564441 
100 1:0.36676722 2:4.4363718 
100 1:0.37676722 2:4.4162974 
100 1:0.38676722 2:4.3962211 
100 1:0.39676722 2:4.3761427 
100 1:0.40676722 2:4.3560624 
100 1:0.41676722 2:4.33598 
100 1:0.42676722 2:4.3158957 
100 1:0.43676722 2:4.2958093 
100 1:0.44676722 2:4.275721 
100 1:0.45676722 2:4.2556306 
100 1:0.46676722 2:4.2355383 
100 1:0.47676722 2:4.2154439 
100 1:0.48676722 2:4.1953476 
100 1:0.49676722 2:4.1752492 
100 1:0.50676722 2:4.1551488 
100 1:0.51676722 2:4.1350465 
100 1:0.52676722 2:4.1149421 
100 1:0.53676722 2:4.0948358 
100 1:0.54676722 2:4.0747274 
100 1:0.55676722 2:4.0546171 
100 1:0.56676722 2:4.0345047 
100 1:0.57676722 2:4.0143904 
100 1:0.58676722 2:3.994274 
100 1:0.59676722 2:3.9741557 
100 1:0.60676722 2:3.9540353 
100 1:0.61676722 2:3.933913 
100 1:0.62676722 2:3.9137886 
100 1:0.63676722 2:3.8936623 
100 1:0.64676722 2:3.8735339 
100 1:0.65676722 2:3.8534035 
100 1:0.66676722 2:3.8332712 
100 1:0.67676722 2:3.8131368 
100 1:0.68676722 2:3.7930005 
100 1:0.69676722 2:3.7728621 
100 1:0.70676722 2:3.7527218 
100 1:0.71676722 2:3.7325794 
100 1:0.72676722 2:3.7124351 
100 1:0.73676722 2:3.6922887 
100 1:0.74676722 2:3.6721404 
100 1:0.75676722 2:3.65199 
100 1:0.76676722 2:3.6318377 
100 1:0.77676722 2:3.6116833 
100 1:0.78676722 2:3.591527 
100 1:0.79676722 2:3.5713686 
100 1:0.80676722 2:3.5512082 
100 1:0.81676722 2:3.5310459 
100 1:0.82676722 2:3.5108815 
100 1:0.83676722 2:3.4907152 
100 1:0.84676722 2:3.4705468 
100 1:0.85676722 2:3.4503765 
100 1:0.86676722 2:3.4302041 
100 1:0.87676722 2:3.4100298 
100 1:0.88676722 2:3.3898534 
100 1:0.89676722 2:3.3696751 
100 1:0.90676722 2:3.3494947 
100 1:0.91676722 2:3.3293124 
100 1:0.92676722 2:3.309128 
100 1:0.93676722 2:3.2889417 
100 1:0.94676722 2:3.2687533 
100 1:0.95676722 2:3.2485629 
100 1:0.96676722 2:3.2283706 
100 1:0.97676722 2:3.2081762 
100 1:0.98676722 2:3.1879799 
100 1:0.99676722 2:3.1677815 
100 1:1.0067672 2:3.1475812 
100 1:1.0167672 2:3.1273788 
100 1:1.0267672 2:3.1071745 
100 1:1.0367672 2:3.0869681 
100 1:1.0467672 2:3.0667598 
100 1:1.0567672 2:3.0465494 
100 1:1.0667672 2:3.0263371 
100 1:1.0767672 2:3.0061227 
100 1:1.0867672 2:2.9859063 
100 1:1.0967672 2:2.965688 
100 1:1.1067672 2:2.9454676 
100 1:1.1167672 2:2.9252453 
100 1:1.1267672 2:2.9050209 
100 1:1.1367672 2:2.8847946 
100 1:1.1467672 2:2.8645662 
100 1:1.1567672 2:2.8443359 
100 1:1.1667672 2:2.8241035 
100 1:1.1767672 2:2.8038692 
100 1:1.1867672 2:2.7836328 
100 1:1.1967672 2:2.7633945 
100 1:1.2067672 2:2.7431541 
100 1:1.2167672 2:2.7229118 
100 1:1.2267672 2:2.7026674 
100 1:1.2367672 2:2.682421 
100 1:1.2467672 2:2.6621727 
100 1:1.2567672 2:2.6419223 
100 1:1.2667672 2:2.62167 
100 1:1.2767672 2:2.6014156 
100 1:1.2867672 2:2.5811593 
100 1:1.2967672 2:2.5609009 
100 1:1.3067672 2:2.5406406 
100 1:1.3167672 2:2.5203782 
100 1:1.3267672 2:2.5001139 
100 1:1.3367672 2:2.4798475 
100 1:1.3467672 2:2.4595792 
100 1:1.3567672 2:2.4393088 
100 1:1.3667672 2:2.4190365 
100 1:1.3767672 2:2.3987621 
100 1:1.3867672 2:2.3784857 
100 1:1.3967672 2:2.3582074 
100 1:1.4067672 2:2.337927 
100 1:1.4167672 2:2.3176447 
100 1:1.4267672 2:2.2973603 
100 1:1.4367672 2:2.277074 
100 1:1.4467672 2:2.2567856 
100 1:1.4567672 2:2.2364953 
100 1:1.4667672 2:2.2162029 
100 1:1.4767672 2:2.1959086 
100 1:1.4867672 2:2.1756122 
100 1:1.4967672 2:2.1553139 
100 1:1.5067672 2:2.1350135 
100 1:1.5167672 2:2.1147112 
100 1:1.5267672 2:2.0944068 
100 1:1.5367672 2:2.0741004 
100 1:1.5467672 2:2.0537921 
100 1:1.5567672 2:2.0334817 
100 1:1.5667672 2:2.0131694 
100 1:1.5767672 2:1.992855 
100 1:1.5867672 2:1.9725387 
100 1:1.5967672 2:1.9522203 
100 1:1.6067672 2:1.9319 
100 1:1.6167672 2:1.9115776 
100 1:1.6267672 2:1.8912533 
100 1:1.6367672 2:1.8709269 
100 1:1.6467672 2:1.8505986 
100 1:1.6567672 2:1.8302682 
100 1:1.6667672 2:1.8099358 
100 1:1.6767672 2:1.7896015 
100 1:1.6867672 2:1.7692651 
100 1:1.6967672 2:1.7489268 
100 1:1.7067672 2:1.7285864 
100 1:1.7167672 2:1.7082441 
100 1:1.7267672 2:1.6878997 
100 1:1.7367672 2:1.6675534 
100 1:1.7467672 2:1.647205 
100 1:1.7567672 2:1.6268547 
100 1:1.7667672 2:1.6065023 
100 1:1.7767672 2:1.586148 
100 1:1.7867672 2:1.5657916 
100 1:1.7967672 2:1.5454333 
100 1:1.8067672 2:1.5250729 
100 1:1.8167672 2:1.5047105 
100 1:1.8267672 2:1.4843462 
100 1:1.8367672 2:1.4639798 
100 1:1.8467672 2:1.4436115 
100 1:1.8567672 2:1.4232411 
100 1:1.8667672 2:1.4028688 
100 1:1.8767672 2:1.3824944 
100 1:1.8867672 2:1.3621181 
100 1:1.8967672 2:1.3417397 
100 1:1.9067672 2:1.3213594 
100 1:1.9167672 2:1.300977 
100 1:1.9267672 2:1.2805927 
100 1:1.9367672 2:1.2602063 
100 1:1.9467672 2:1.239818 
100 1:1.9567672 2:1.2194276 
100 1:1.9667672 2:1.1990352 
100 1:1.9767672 2:1.1786409 
100 1:1.9867672 2:1.1582445 
100 1:1.9967672 2:1.1378462 
100 1:2.0067672 2:1.1174458 
100 1:2.0167672 2:1.0970435 
100 1:2.0267672 2:1.0766391 
100 1:2.0367672 2:1.0562328 
100 1:2.0467672 2:1.0358244 
100 1:2.0567672 2:1.0154141 
100 1:2.0667672 2:0.99500171 
100 1:2.0767672 2:0.97458736 
100 1:2.0867672 2:0.954171 
100 1:2.0967672 2:0.93375265 
100 1:2.1067672 2:0.9133323 
100 1:2.1167672 2:0.89290994 
100 1:2.1267672 2:0.87248559 
100 1:2.1367672 2:0.85205924 
100 1:2.1467672 2:0.83163088 
100 1:2.1567672 2:0.81120053 
100 1:2.1667672 2:0.79076818 
100 1:2.1767672 2:0.77033382 
100 1:2.1867672 2:0.74989747 
100 1:2.1967672 2:0.72945912 
100 1:2.2067672 2:0.70901876 
100 1:2.2167672 2:0.68857641 
100 1:2.2267672 2:0.66813206 
100 1:2.2367672 2:0.6476857 
100 1:2.2467672 2:0.62723735 
100 1:2.2567672 2:0.606787 
100 1:2.2667672 2:0.58633464 
100 1:2.2767672 2:0.56588029 
100 1:2.2867672 2:0.54542394 
100 1:2.2967672 2:0.52496558 
100 1:2.3067672 2:0.50450523 
100 1:2.3167672 2:0.48404287 
100 1:2.3267672 2:0.46357852 
100 1:2.3367672 2:0.44311217 
100 1:2.3467672 2:0.42264381 
100 1:2.3567672 2:0.40217346 
100 1:2.3667672 2:0.38170111 
100 1:2.3767672 2:0.36122675 
100 1:2.3867672 2:0.3407504 
100 1:2.3967672 2:0.32027205 
100 1:2.4067672 2:0.29979169 
100 1:2.4167672 2:0.27930934 
100 1:2.4267672 2:0.25882499 
100 1:2.4367672 2:0.23833863 
100 1:2.4467672 2:0.21785028 
100 1:2.4567672 2:0.19735993 
100 1:2.4667672 2:0.17686757 
100 1:2.4767672 2:0.15637322 
100 1:2.4867672 2:0.13587687 
100 1:2.4967672 2:0.11537851 
100 1:2.5067672 2:0.094878159 
100 1:2.5167672 2:0.074375806 
100 1:2.5267672 2:0.053871453 
100 1:2.5367672 2:0.033365099 
100 1:2.5467672 2:0.012856746 
100 1:1.05 2:3.898975 
100 1:1.06 2:3.878764 
100 1:1.07 2:3.858551 
100 1:1.08 2:3.838336 
100 1:1.09 2:3.818119 
100 1:1.1 2:3.7979 
100 1:1.11 2:3.777679 
100 1:1.12 2:3.757456 
100 1:1.13 2:3.737231 
100 1:1.14 2:3.717004 
100 1:1.15 2:3.696775 
100 1:1.16 2:3.676544 
100 1:1.17 2:3.656311 
100 1:1.18 2:3.636076 
100 1:1.19 2:3.615839 
100 1:1.2 2:3.5956 
100 1:1.21 2:3.575359 
100 1:1.22 2:3.555116 
100 1:1.23 2:3.534871 
100 1:1.24 2:3.514624 
100 1:1.25 2:3.494375 
100 1:1.26 2:3.474124 
100 1:1.27 2:3.453871 
100 1:1.28 2:3.433616 
100 1:1.29 2:3.413359 
100 1:1.3 2:3.3931 
100 1:1.31 2:3.372839 
100 1:1.32 2:3.352576 
100 1:1.33 2:3.332311 
100 1:1.34 2:3.312044 
100 1:1.35 2:3.291775 
100 1:1.36 2:3.271504 
100 1:1.37 2:3.251231 
100 1:1.38 2:3.230956 
100 1:1.39 2:3.210679 
100 1:1.4 2:3.1904 
100 1:1.41 2:3.170119 
100 1:1.42 2:3.149836 
100 1:1.43 2:3.129551 
100 1:1.44 2:3.109264 
100 1:1.45 2:3.088975 
100 1:1.46 2:3.068684 
100 1:1.47 2:3.048391 
100 1:1.48 2:3.028096 
100 1:1.49 2:3.007799 
100 1:1.5 2:2.9875 
100 1:1.51 2:2.967199 
100 1:1.52 2:2.946896 
100 1:1.53 2:2.926591 
100 1:1.54 2:2.906284 
100 1:1.55 2:2.885975 
100 1:1.56 2:2.865664 
100 1:1.57 2:2.845351 
100 1:1.58 2:2.825036 
100 1:1.59 2:2.804719 
100 1:1.6 2:2.7844 
100 1:1.61 2:2.764079 
100 1:1.62 2:2.743756 
100 1:1.63 2:2.723431 
100 1:1.64 2:2.703104 
100 1:1.65 2:2.682775 
100 1:1.66 2:2.662444 
100 1:1.67 2:2.642111 
100 1:1.68 2:2.621776 
100 1:1.69 2:2.601439 
100 1:1.7 2:2.5811 
100 1:1.71 2:2.560759 
100 1:1.72 2:2.540416 
100 1:1.73 2:2.520071 
100 1:1.74 2:2.499724 
100 1:1.75 2:2.479375 
100 1:1.76 2:2.459024 
100 1:1.77 2:2.438671 
100 1:1.78 2:2.418316 
100 1:1.79 2:2.397959 
100 1:1.8 2:2.3776 
100 1:1.81 2:2.357239 
100 1:1.82 2:2.336876 
100 1:1.83 2:2.316511 
100 1:1.84 2:2.296144 
100 1:1.85 2:2.275775 
100 1:1.86 2:2.255404 
100 1:1.87 2:2.235031 
100 1:1.88 2:2.214656 
100 1:1.89 2:2.194279 
100 1:1.9 2:2.1739 
100 1:1.91 2:2.153519 
100 1:1.92 2:2.133136 
100 1:1.93 2:2.112751 
100 1:1.94 2:2.092364 
100 1:1.95 2:2.071975 
100 1:1.96 2:2.051584 
100 1:1.97 2:2.031191 
100 1:1.98 2:2.010796 
100 1:1.99 2:1.990399 
100 1:2 2:1.97 
100 1:2.01 2:1.949599 
100 1:2.02 2:1.929196 
100 1:2.03 2:1.908791 
100 1:2.04 2:1.888384 
100 1:2.05 2:1.867975 
100 1:2.06 2:1.847564 
100 1:2.07 2:1.827151 
100 1:2.08 2:1.806736 
100 1:2.09 2:1.786319 
100 1:2.1 2:1.7659 
100 1:2.11 2:1.745479 
100 1:2.12 2:1.725056 
100 1:2.13 2:1.704631 
100 1:2.14 2:1.684204 
100 1:2.15 2:1.663775 
100 1:2.16 2:1.643344 
100 1:2.17 2:1.622911 
100 1:2.18 2:1.602476 
100 1:2.19 2:1.582039 
100 1:2.2 2:1.5616 
100 1:2.21 2:1.541159 
100 1:2.22 2:1.520716 
100 1:2.23 2:1.500271 
100 1:2.24 2:1.479824 
100 1:2.25 2:1.459375 
100 1:2.26 2:1.438924 
100 1:2.27 2:1.418471 
100 1:2.28 2:1.398016 
100 1:2.29 2:1.377559 
100 1:2.3 2:1.3571 
100 1:2.31 2:1.336639 
100 1:2.32 2:1.316176 
100 1:2.33 2:1.295711 
100 1:2.34 2:1.275244 
100 1:2.35 2:1.254775 
100 1:2.36 2:1.234304 
100 1:2.37 2:1.213831 
100 1:2.38 2:1.193356 
100 1:2.39 2:1.172879 
100 1:2.4 2:1.1524 
100 1:2.41 2:1.131919 
100 1:2.42 2:1.111436 
100 1:2.43 2:1.090951 
100 1:2.44 2:1.070464 
100 1:2.45 2:1.049975 
100 1:2.46 2:1.029484 
100 1:2.47 2:1.008991 
100 1:2.48 2:0.988496 
100 1:2.49 2:0.967999 
100 1:2.5 2:0.9475 
100 1:2.51 2:0.926999 
100 1:2.52 2:0.906496 
100 1:2.53 2:0.885991 
100 1:2.54 2:0.865484 
100 1:2.55 2:0.844975 
100 1:2.56 2:0.824464 
100 1:2.57 2:0.803951 
100 1:2.58 2:0.783436 
100 1:2.59 2:0.762919 
100 1:2.6 2:0.7424 
100 1:2.61 2:0.721879 
100 1:2.62 2:0.701356 
100 1:2.63 2:0.680831 
100 1:2.64 2:0.660304 
100 1:2.65 2:0.639775 
100 1:2.66 2:0.619244 
100 1:2.67 2:0.598711 
100 1:2.68 2:0.578176 
100 1:2.69 2:0.557639 
100 1:2.7 2:0.5371 
100 1:2.71 2:0.516559 
100 1:2.72 2:0.496016 
100 1:2.73 2:0.475471 
100 1:2.74 2:0.454924 
100 1:2.75 2:0.434375 
100 1:2.76 2:0.413824 
100 1:2.77 2:0.393271 
100 1:2.78 2:0.372716 
100 1:2.79 2:0.352159 
100 1:2.8 2:0.3316 
100 1:2.81 2:0.311039 
100 1:2.82 2:0.290476 
100 1:2.83 2:0.269911 
100 1:2.84 2:0.249344 
100 1:2.85 2:0.228775 
100 1:2.86 2:0.208204 
100 1:2.87 2:0.187631 
100 1:2.88 2:0.167056 
100 1:2.89 2:0.146479 
100 1:2.9 2:0.1259 
100 1:2.91 2:0.105319 
100 1:2.92 2:0.084736 
100 1:2.93 2:0.064151 
100 1:2.94 2:0.043564 
100 1:2.95 2:0.022975 
100 1:2.96 2:0.002384 
100 1:0.0067672202 2:5.1577165 
100 1:0.01676722 2:5.1377142 
100 1:0.02676722 2:5.1177098 
100 1:0.03676722 2:5.0977035 
100 1:0.04676722 2:5.0776951 
100 1:0.0073531151 2:9.3490028 
100 1:0.017353115 2:9.3290003 
100 1:0.027353115 2:9.3089959 
100 1:0.037353115 2:9.2889894 
100 1:0.047353115 2:9.2689809 
100 1:0.003577263 2:10.306102 
100 1:0.013577263 2:10.2861 
100 1:0.023577263 2:10.266097 
100 1:0.033577263 2:10.246091 
100 1:0.043577263 2:10.226083 
-100 1:-0.042832622 2:5.1180782 
-100 1:-0.03770955 2:5.1248031 
-100 1:-0.032580186 2:5.1314357 
-100 1:-0.027444569 2:5.1379759 
-100 1:-0.022302741 2:5.1444237 
-100 1:-0.01715474 2:5.1507788 
-100 1:-0.012000608 2:5.1570412 
-100 1:-0.006840383 2:5.1632108 
-100 1:-0.0016741058 2:5.1692874 
-100 1:-0.99616724 2:7.7013772 
-100 1:-0.98747021 2:7.7252299 
-100 1:-0.97876659 2:7.7489261 
-100 1:-0.9700564 2:7.7724655 
-100 1:-0.96133965 2:7.795848 
-100 1:-0.95261636 2:7.8190737 
-100 1:-0.94388655 2:7.8421422 
-100 1:-0.93515024 2:7.8650535 
-100 1:-0.92640744 2:7.8878076 
-100 1:-0.91765817 2:7.9104042 
-100 1:-0.90890244 2:7.9328432 
-100 1:-0.90014028 2:7.9551246 
-100 1:-0.89137169 2:7.9772482 
-100 1:-0.8825967 2:7.999214 
-100 1:-0.87381532 2:8.0210217 
-100 1:-0.86502756 2:8.0426713 
-100 1:-0.85623343 2:8.0641626 
-100 1:-0.84743296 2:8.0854956 
-100 1:-0.83862616 2:8.1066702 
-100 1:-0.82981304 2:8.1276861 
-100 1:-0.82099361 2:8.1485434 
-100 1:-0.8121679 2:8.1692419 
-100 1:-0.8033359 2:8.1897814 
-100 1:-0.79449764 2:8.2101619 
-100 1:-0.78565313 2:8.2303833 
-100 1:-0.77680238 2:8.2504454 
-100 1:-0.7679454 2:8.2703481 
-100 1:-0.75908221 2:8.2900914 
-100 1:-0.75021281 2:8.3096751 
-100 1:-0.74133722 2:8.329099 
-100 1:-0.73245545 2:8.3483632 
-100 1:-0.72356752 2:8.3674674 
-100 1:-0.71467342 2:8.3864116 
-100 1:-0.70577318 2:8.4051956 
-100 1:-0.6968668 2:8.4238194 
-100 1:-0.6879543 2:8.4422828 
-100 1:-0.67903568 2:8.4605857 
-100 1:-0.67011095 2:8.478728 
-100 1:-0.66118013 2:8.4967096 
-100 1:-0.65224322 2:8.5145305 
-100 1:-0.64330023 2:8.5321904 
-100 1:-0.63435117 2:8.5496892 
-100 1:-0.62539605 2:8.567027 
-100 1:-0.61643488 2:8.5842034 
-100 1:-0.60746766 2:8.6012186 
-100 1:-0.59849441 2:8.6180722 
-100 1:-0.58951513 2:8.6347643 
-100 1:-0.58052983 2:8.6512948 
-100 1:-0.57153851 2:8.6676634 
-100 1:-0.56254119 2:8.6838701 
-100 1:-0.55353787 2:8.6999148 
-100 1:-0.54452855 2:8.7157974 
-100 1:-0.53551325 2:8.7315178 
-100 1:-0.52649197 2:8.7470759 
-100 1:-0.51746471 2:8.7624715 
-100 1:-0.50843149 2:8.7777046 
-100 1:-0.4993923 2:8.792775 
-100 1:-0.49034716 2:8.8076827 
-100 1:-0.48129606 2:8.8224275 
-100 1:-0.47223901 2:8.8370093 
-100 1:-0.46317602 2:8.851428 
-100 1:-0.45410709 2:8.8656836 
-100 1:-0.44503223 2:8.8797758 
-100 1:-0.43595143 2:8.8937047 
-100 1:-0.42686471 2:8.9074701 
-100 1:-0.41777207 2:8.9210718 
-100 1:-0.4086735 2:8.9345098 
-100 1:-0.39956902 2:8.947784 
-100 1:-0.39045863 2:8.9608943 
-100 1:-0.38134232 2:8.9738405 
-100 1:-0.3722201 2:8.9866226 
-100 1:-0.36309198 2:8.9992404 
-100 1:-0.35395795 2:9.0116938 
-100 1:-0.34481802 2:9.0239828 
-100 1:-0.33567219 2:9.0361072 
-100 1:-0.32652045 2:9.048067 
-100 1:-0.31736282 2:9.0598619 
-100 1:-0.30819929 2:9.071492 
-100 1:-0.29902986 2:9.0829571 
-100 1:-0.28985454 2:9.0942571 
-100 1:-0.28067332 2:9.1053918 
-100 1:-0.2714862 2:9.1163613 
-100 1:-0.26229319 2:9.1271653 
-100 1:-0.25309427 2:9.1378038 
-100 1:-0.24388947 2:9.1482766 
-100 1:-0.23467876 2:9.1585838 
-100 1:-0.22546215 2:9.168725 
-100 1:-0.21623964 2:9.1787004 
-100 1:-0.20701123 2:9.1885096 
-100 1:-0.19777691 2:9.1981527 
-100 1:-0.18853669 2:9.2076296 
-100 1:-0.17929056 2:9.21694 
-100 1:-0.17003852 2:9.226084 
-100 1:-0.16078057 2:9.2350614 
-100 1:-0.1515167 2:9.2438721 
-100 1:-0.14224691 2:9.2525159 
-100 1:-0.13297119 2:9.2609929 
-100 1:-0.12368956 2:9.2693029 
-100 1:-0.11440199 2:9.2774457 
-100 1:-0.10510849 2:9.2854213 
-100 1:-0.095809049 2:9.2932296 
-100 1:-0.086503669 2:9.3008704 
-100 1:-0.077192341 2:9.3083437 
-100 1:-0.067875062 2:9.3156493 
-100 1:-0.058551827 2:9.3227871 
-100 1:-0.04922263 2:9.3297571 
-100 1:-0.039887465 2:9.3365591 
-100 1:-0.030546328 2:9.343193 
-100 1:-0.021199211 2:9.3496587 
-100 1:-0.011846109 2:9.3559562 
-100 1:-0.0024870158 2:9.3620852 
-95.687246953059926 1:-1.9297424 2:10.210079 
-100 1:-1.9158149 2:10.250689 
-100 1:-1.9019002 2:10.291048 
-100 1:-1.8879983 2:10.331157 
-100 1:-1.8741088 2:10.371016 
-100 1:-1.8602316 2:10.410625 
-100 1:-1.8463665 2:10.449985 
-100 1:-1.8325134 2:10.489095 
-100 1:-1.8186721 2:10.527955 
-100 1:-1.8048423 2:10.566567 
-100 1:-1.791024 2:10.60493 
-100 1:-1.7772169 2:10.643044 
-100 1:-1.7634208 2:10.68091 
-100 1:-1.7496357 2:10.718527 
-100 1:-1.7358613 2:10.755896 
-100 1:-1.7220974 2:10.793018 
-100 1:-1.7083439 2:10.829892 
-100 1:-1.6946007 2:10.866519 
-100 1:-1.6808675 2:10.902898 
-100 1:-1.6671442 2:10.93903 
-100 1:-1.6534306 2:10.974915 
-100 1:-1.6397267 2:11.010553 
-100 1:-1.6260321 2:11.045945 
-100 1:-1.6123468 2:11.081091 
-100 1:-1.5986705 2:11.11599 
-100 1:-1.5850032 2:11.150643 
-100 1:-1.5713447 2:11.18505 
-100 1:-1.5576948 2:11.219211 
-100 1:-1.5440534 2:11.253127 
-100 1:-1.5304203 2:11.286797 
-100 1:-1.5167954 2:11.320222 
-100 1:-1.5031785 2:11.353402 
-100 1:-1.4895695 2:11.386337 
-100 1:-1.4759681 2:11.419026 
-100 1:-1.4623744 2:11.451472 
-100 1:-1.4487881 2:11.483672 
-100 1:-1.435209 2:11.515628 
-100 1:-1.4216371 2:11.54734 
-100 1:-1.4080722 2:11.578807 
-100 1:-1.3945141 2:11.61003 
-100 1:-1.2064853 2:8.2665975 
-100 1:-1.196761 2:8.2942267 
-100 1:-1.1870324 2:8.3216809 
-100 1:-1.1772995 2:8.3489599 
-100 1:-1.1675624 2:8.3760636 
-100 1:-1.157821 2:8.4029921 
-100 1:-1.1480753 2:8.4297452 
-100 1:-1.1383253 2:8.4563228 
-100 1:-1.1285711 2:8.4827249 
-100 1:-1.1188125 2:8.5089513 
-100 1:-1.1090497 2:8.5350021 
-100 1:-1.0992825 2:8.5608771 
-100 1:-1.0895111 2:8.5865762 
-100 1:-1.0797353 2:8.6120995 
-100 1:-1.0699552 2:8.6374467 
-100 1:-1.0601708 2:8.6626178 
-100 1:-1.0503821 2:8.6876128 
-100 1:-1.040589 2:8.7124315 
-100 1:-1.0307915 2:8.737074 
-100 1:-1.0209898 2:8.76154 
-100 1:-1.0111836 2:8.7858296 
-100 1:-1.0013731 2:8.8099426 
-100 1:-0.99155824 2:8.833879 
-100 1:-0.98173898 2:8.8576387 
-100 1:-0.97191534 2:8.8812216 
-100 1:-0.9620873 2:8.9046276 
-100 1:-0.95225486 2:8.9278567 
-100 1:-0.94241801 2:8.9509087 
-100 1:-0.93257673 2:8.9737837 
-100 1:-0.92273104 2:8.9964815 
-100 1:-0.9128809 2:9.019002 
-100 1:-0.90302633 2:9.0413452 
-100 1:-0.8931673 2:9.0635109 
-100 1:-0.88330381 2:9.0854992 
-100 1:-0.87343584 2:9.1073098 
-100 1:-0.8635634 2:9.1289428 
-100 1:-0.85368647 2:9.1503981 
-100 1:-0.84380504 2:9.1716755 
-100 1:-0.8339191 2:9.192775 
-100 1:-0.82402865 2:9.2136966 
-100 1:-0.81413366 2:9.23444 
-100 1:-0.80423414 2:9.2550054 
-100 1:-0.79433006 2:9.2753924 
-100 1:-0.78442143 2:9.2956012 
-100 1:-0.77450822 2:9.3156316 
-100 1:-0.76459043 2:9.3354835 
-100 1:-0.75466805 2:9.3551568 
-100 1:-0.74474107 2:9.3746515 
-100 1:-0.73480947 2:9.3939675 
-100 1:-0.72487324 2:9.4131046 
-100 1:-0.71493237 2:9.4320629 
-100 1:-0.70498685 2:9.4508422 
-100 1:-0.69503667 2:9.4694424 
-100 1:-0.68508181 2:9.4878634 
-100 1:-0.67512227 2:9.5061053 
-100 1:-0.66515802 2:9.5241678 
-100 1:-0.65518906 2:9.542051 
-100 1:-0.64521537 2:9.5597546 
-100 1:-0.63523694 2:9.5772787 
-100 1:-0.62525375 2:9.5946231 
-100 1:-0.6152658 2:9.6117878 
-100 1:-0.60527307 2:9.6287726 
-100 1:-0.59527554 2:9.6455776 
-100 1:-0.5852732 2:9.6622025 
-100 1:-0.57526604 2:9.6786474 
-100 1:-0.56525404 2:9.6949121 
-100 1:-0.55523719 2:9.7109965 
-100 1:-0.54521547 2:9.7269006 
-100 1:-0.53518886 2:9.7426242 
-100 1:-0.52515736 2:9.7581674 
-100 1:-0.51512094 2:9.7735299 
-100 1:-0.50507959 2:9.7887117 
-100 1:-0.4950333 2:9.8037127 
-100 1:-0.48498205 2:9.8185329 
-100 1:-0.47492581 2:9.833172 
-100 1:-0.46486459 2:9.8476302 
-100 1:-0.45479835 2:9.8619071 
-100 1:-0.44472709 2:9.8760029 
-100 1:-0.43465078 2:9.8899173 
-100 1:-0.4245694 2:9.9036503 
-100 1:-0.41448295 2:9.9172017 
-100 1:-0.4043914 2:9.9305716 
-100 1:-0.39429474 2:9.9437598 
-100 1:-0.38419294 2:9.9567662 
-100 1:-0.37408599 2:9.9695907 
-100 1:-0.36397387 2:9.9822333 
-100 1:-0.35385656 2:9.9946937 
-100 1:-0.34373405 2:10.006972 
-100 1:-0.33360631 2:10.019068 
-100 1:-0.32347332 2:10.030982 
-100 1:-0.31333507 2:10.042713 
-100 1:-0.30319153 2:10.054262 
-100 1:-0.29304269 2:10.065628 
-100 1:-0.28288852 2:10.076811 
-100 1:-0.272729 2:10.087812 
-100 1:-0.26256412 2:10.09863 
-100 1:-0.25239386 2:10.109264 
-100 1:-0.24221818 2:10.119716 
-100 1:-0.23203708 2:10.129984 
-100 1:-0.22185053 2:10.140069 
-100 1:-0.2116585 2:10.149971 
-100 1:-0.20146098 2:10.159689 
-100 1:-0.19125794 2:10.169223 
-100 1:-0.18104937 2:10.178574 
-100 1:-0.17083523 2:10.187741 
-100 1:-0.16061551 2:10.196724 
-100 1:-0.15039018 2:10.205523 
-100 1:-0.14015922 2:10.214138 
-100 1:-0.1299226 2:10.222569 
-100 1:-0.11968031 2:10.230815 
-100 1:-0.10943232 2:10.238877 
-100 1:-0.099178599 2:10.246755 
-100 1:-0.088919128 2:10.254448 
-100 1:-0.078653882 2:10.261956 
-100 1:-0.068382836 2:10.269279 
-100 1:-0.058105963 2:10.276418 
-100 1:-0.047823239 2:10.283371 
-100 1:-0.037534639 2:10.290139 
-100 1:-0.027240135 2:10.296722 
-100 1:-0.016939702 2:10.30312 
-100 1:-0.0066333125 2:10.309332 
-100 1:-2.1151895 2:10.673108 
-100 1:-2.1000524 2:10.717045 
-100 1:-2.0849349 2:10.76071 
-100 1:-2.0698369 2:10.804103 
-100 1:-2.0547582 2:10.847224 
-100 1:-2.0396983 2:10.890074 
-100 1:-2.0246572 2:10.932653 
-100 1:-2.0096345 2:10.974962 
-100 1:-1.9946299 2:11.017 
-100 1:-1.9796433 2:11.058769 
-100 1:-1.9646743 2:11.100267 
-100 1:-1.9497228 2:11.141497 
-100 1:-1.9347884 2:11.182458 
-100 1:-1.919871 2:11.223149 
-100 1:-1.9049702 2:11.263573 
-100 1:-1.8900859 2:11.303728 
-100 1:-1.8752178 2:11.343616 
-100 1:-1.8603657 2:11.383236 
-100 1:-1.8455294 2:11.422589 
-100 1:-1.8307085 2:11.461676 
-100 1:-1.815903 2:11.500495 
-100 1:-1.8011124 2:11.539048 
-100 1:-1.7863368 2:11.577335 
-100 1:-1.7715757 2:11.615356 
-100 1:-1.756829 2:11.653112 
-100 1:-1.7420965 2:11.690602 
-100 1:-1.7273779 2:11.727828 
-100 1:-1.7126731 2:11.764788 
-100 1:-1.6979818 2:11.801484 
-100 1:-1.6833038 2:11.837915 
-100 1:-1.6686389 2:11.874083 
-100 1:-1.6539868 2:11.909986 
-100 1:-1.6393475 2:11.945626 
-100 1:-1.6247206 2:11.981003 
-100 1:-1.610106 2:12.016116 
-100 1:-1.5955034 2:12.050967 
-100 1:-1.5809127 2:12.085555 
-100 1:-1.5663337 2:12.11988 
-100 1:-1.5517661 2:12.153943 
-100 1:-1.5372098 2:12.187744 
-100 1:-1.5226645 2:12.221282 
-100 1:-1.5081301 2:12.254559 
-100 1:-1.4936064 2:12.287575 
-100 1:-1.4790932 2:12.320329 
-100 1:-1.4645903 2:12.352823 
-100 1:-1.4500974 2:12.385055 
-100 1:-1.4356145 2:12.417026 
-100 1:-1.4211413 2:12.448737 
-100 1:-1.4066777 2:12.480187 
-100 1:-1.3922234 2:12.511377 
-100 1:-1.3777783 2:12.542307 
-100 1:-1.3633422 2:12.572977 
-100 1:-1.3489149 2:12.603388 
-100 1:-1.3344962 2:12.633538 
-100 1:-1.320086 2:12.66343 
-100 1:-1.3056841 2:12.693062 
-100 1:-1.2912902 2:12.722434 
-100 1:-1.2769043 2:12.751548 
-100 1:-1.2625261 2:12.780403 
-100 1:-1.2481555 2:12.808999 
-100 1:-1.2337922 2:12.837337 
-100 1:-1.2194362 2:12.865416 
-100 1:-1.2050873 2:12.893236 
-100 1:-1.1907452 2:12.920799 
-100 1:-1.1764099 2:12.948103 
-100 1:-1.1620811 2:12.97515 
-100 1:-1.1477587 2:13.001938 
-100 1:-1.1334425 2:13.028469 
-100 1:-1.1191323 2:13.054742 
-100 1:-1.104828 2:13.080758 
-100 1:-1.0905294 2:13.106516 
-100 1:-1.0762364 2:13.132017 
-100 1:-1.0619488 2:13.15726 
-100 1:-1.0476664 2:13.182247 
-100 1:-1.033389 2:13.206976 
-100 1:-1.0191166 2:13.231449 
-100 1:-1.0048489 2:13.255665 
-100 1:-0.99058575 2:13.279624 
-100 1:-0.97632705 2:13.303326 
-100 1:-0.96207262 2:13.326771 
-100 1:-0.94782229 2:13.34996 
-100 1:-0.93357591 2:13.372893 
-100 1:-0.91933332 2:13.395569 
-100 1:-0.90509437 2:13.417989 
-100 1:-0.8908589 2:13.440153 
-100 1:-0.87662676 2:13.46206 
-100 1:-0.86239778 2:13.483711 
-100 1:-0.84817182 2:13.505106 
-100 1:-0.83394873 2:13.526245 
-100 1:-0.81972834 2:13.547129 
-100 1:-0.80551051 2:13.567756 
-100 1:-0.79129508 2:13.588127 
-100 1:-0.77708191 2:13.608242 
-100 1:-0.76287084 2:13.628102 
-100 1:-0.74866171 2:13.647706 
-100 1:-0.73445439 2:13.667054 
-100 1:-0.72024871 2:13.686146 
-100 1:-0.70604453 2:13.704983 
-100 1:-0.6918417 2:13.723564 
-100 1:-0.67764006 2:13.741889 
-100 1:-0.66343948 2:13.759959 
-100 1:-0.64923979 2:13.777773 
-100 1:-0.63504086 2:13.795331 
-100 1:-0.62084252 2:13.812634 
-100 1:-0.60664465 2:13.829682 
-100 1:-0.59244708 2:13.846473 
-100 1:-0.57824966 2:13.86301 
-100 1:-0.56405226 2:13.87929 
-100 1:-0.54985472 2:13.895316 
-100 1:-0.5356569 2:13.911085 
-100 1:-0.52145865 2:13.926599 
-100 1:-0.50725982 2:13.941858 
-100 1:-0.49306026 2:13.956861 
-100 1:-0.47885983 2:13.971608 
-100 1:-0.46465838 2:13.9861 
-100 1:-0.45045577 2:14.000336 
-100 1:-0.43625184 2:14.014316 
-100 1:-0.42204645 2:14.028041 
-100 1:-0.40783946 2:14.04151 
-100 1:-0.39363072 2:14.054723 
-100 1:-0.37942008 2:14.06768 
-100 1:-0.36520739 2:14.080382 
-100 1:-0.35099251 2:14.092828 
-100 1:-0.33677529 2:14.105018 
-100 1:-0.32255559 2:14.116952 
-100 1:-0.30833326 2:14.12863 
-100 1:-0.29410815 2:14.140052 
-100 1:-0.27988011 2:14.151218 
-100 1:-0.265649 2:14.162127 
-100 1:-0.25141466 2:14.172781 
-100 1:-0.23717697 2:14.183178 
-100 1:-0.22293575 2:14.193319 
-100 1:-0.20869088 2:14.203204 
-100 1:-0.19444219 2:14.212832 
-100 1:-0.18018955 2:14.222204 
-100 1:-0.1659328 2:14.231319 
-100 1:-0.15167179 2:14.240177 
-100 1:-0.13740639 2:14.248779 
-100 1:-0.12313642 2:14.257124 
-100 1:-0.10886176 2:14.265212 
-100 1:-0.094582249 2:14.273043 
-100 1:-0.080297735 2:14.280617 
-100 1:-0.06600807 2:14.287934 
-100 1:-0.051713104 2:14.294993 
-100 1:-0.037412685 2:14.301795 
-100 1:-0.023106663 2:14.30834 
-100 1:-0.0087948868 2:14.314627 
-8.4421242493954018 1:-2.7363811 2:12.354011 
-100 1:-2.7165659 2:12.409087 
-100 1:-2.6968033 2:12.463807 
-100 1:-2.6770925 2:12.518172 
-100 1:-2.657433 2:12.572183 
-100 1:-2.637824 2:12.62584 
-100 1:-2.6182649 2:12.679145 
-100 1:-2.5987549 2:12.732098 
-100 1:-2.5792934 2:12.7847 
-100 1:-2.5598798 2:12.836953 
-100 1:-2.5405133 2:12.888856 
-100 1:-2.5211934 2:12.940412 
-100 1:-2.5019195 2:12.99162 
-100 1:-2.4826908 2:13.042481 
-100 1:-2.4635068 2:13.092997 
-100 1:-2.4443669 2:13.143168 
-100 1:-2.4252704 2:13.192994 
-100 1:-2.4062168 2:13.242478 
-100 1:-2.3872055 2:13.291618 
-100 1:-2.3682359 2:13.340417 
-100 1:-2.3493074 2:13.388875 
-100 1:-2.3304194 2:13.436993 
-100 1:-2.3115715 2:13.48477 
-100 1:-2.292763 2:13.532209 
-100 1:-2.2739934 2:13.57931 
-100 1:-2.2552621 2:13.626073 
-100 1:-2.2365686 2:13.6725 
-100 1:-2.2179125 2:13.71859 
-100 1:-2.199293 2:13.764345 
-100 1:-2.1807098 2:13.809765 
-100 1:-2.1621623 2:13.854851 
-100 1:-2.14365 2:13.899603 
-100 1:-2.1251725 2:13.944022 
-100 1:-2.1067291 2:13.988109 
-100 1:-2.0883195 2:14.031865 
-100 1:-2.0699431 2:14.075289 
-100 1:-2.0515994 2:14.118383 
-100 1:-2.033288 2:14.161147 
-100 1:-2.0150084 2:14.203581 
-100 1:-1.9967602 2:14.245687 
-100 1:-1.9785428 2:14.287465 
-100 1:-1.9603558 2:14.328915 
-100 1:-1.9421988 2:14.370038 
-100 1:-1.9240714 2:14.410834 
-100 1:-1.9059729 2:14.451305 
-100 1:-1.8879031 2:14.49145 
-100 1:-1.8698615 2:14.531269 
-100 1:-1.8518477 2:14.570765 
-100 1:-1.8338612 2:14.609936 
-100 1:-1.8159016 2:14.648784 
-100 1:-1.7979685 2:14.687309 
-100 1:-1.7800614 2:14.725511 
-100 1:-1.7621801 2:14.763391 
-100 1:-1.744324 2:14.80095 
-100 1:-1.7264927 2:14.838187 
-100 1:-1.7086859 2:14.875103 
-100 1:-1.6909032 2:14.9117 
-100 1:-1.6731441 2:14.947976 
-100 1:-1.6554083 2:14.983933 
-100 1:-1.6376953 2:15.019571 
-100 1:-1.6200049 2:15.05489 
-100 1:-1.6023366 2:15.089891 
-100 1:-1.58469 2:15.124574 
-100 1:-1.5670648 2:15.15894 
-100 1:-1.5494606 2:15.192989 
-100 1:-1.5318771 2:15.226721 
-100 1:-1.5143138 2:15.260137 
-100 1:-1.4967704 2:15.293236 
-100 1:-1.4792465 2:15.32602 
-100 1:-1.4617419 2:15.358489 
-100 1:-1.4442561 2:15.390643 
-100 1:-1.4267887 2:15.422483 
-100 1:-1.4093395 2:15.454008 
-100 1:-1.3919081 2:15.485219 
-100 1:-1.3744942 2:15.516117 
-100 1:-1.3570973 2:15.546701 
-100 1:-1.3397172 2:15.576972 
-100 1:-1.3223536 2:15.606931 
-100 1:-1.305006 2:15.636577 
-100 1:-1.2876742 2:15.665911 
-100 1:-1.2703579 2:15.694933 
-100 1:-1.2530566 2:15.723644 
-100 1:-1.2357702 2:15.752043 
-100 1:-1.2184982 2:15.780132 
-100 1:-1.2012403 2:15.807909 
-100 1:-1.1839963 2:15.835377 
-100 1:-1.1667658 2:15.862533 
-100 1:-1.1495484 2:15.88938 
-100 1:-1.132344 2:15.915917 
-100 1:-1.1151521 2:15.942145 
-100 1:-1.0979725 2:15.968063 
-100 1:-1.0808048 2:15.993672 
-100 1:-1.0636487 2:16.018972 
-100 1:-1.046504 2:16.043963 
-100 1:-1.0293704 2:16.068646 
-100 1:-1.0122474 2:16.093021 
-100 1:-0.99513494 2:16.117087 
-100 1:-0.97803258 2:16.140846 
-100 1:-0.96094006 2:16.164296 
-100 1:-0.94385708 2:16.187439 
-100 1:-0.92678335 2:16.210275 
-100 1:-0.90971858 2:16.232804 
-100 1:-0.89266247 2:16.255025 
-100 1:-0.87561474 2:16.27694 
-100 1:-0.85857509 2:16.298547 
-100 1:-0.84154325 2:16.319848 
-100 1:-0.82451891 2:16.340843 
-100 1:-0.8075018 2:16.361531 
-100 1:-0.79049164 2:16.381913 
-100 1:-0.77348813 2:16.401989 
-100 1:-0.756491 2:16.421759 
-100 1:-0.73949996 2:16.441222 
-100 1:-0.72251474 2:16.460381 
-100 1:-0.70553505 2:16.479233 
-100 1:-0.68856062 2:16.49778 
-100 1:-0.67159117 2:16.516021 
-100 1:-0.65462642 2:16.533957 
-100 1:-0.63766609 2:16.551588 
-100 1:-0.62070991 2:16.568913 
-100 1:-0.60375761 2:16.585933 
-100 1:-0.58680891 2:16.602649 
-100 1:-0.56986353 2:16.619059 
-100 1:-0.55292121 2:16.635164 
-100 1:-0.53598167 2:16.650964 
-100 1:-0.51904464 2:16.666459 
-100 1:-0.50210985 2:16.681649 
-100 1:-0.48517702 2:16.696535 
-100 1:-0.46824589 2:16.711116 
-100 1:-0.45131619 2:16.725392 
-100 1:-0.43438765 2:16.739363 
-100 1:-0.41745999 2:16.75303 
-100 1:-0.40053295 2:16.766392 
-100 1:-0.38360626 2:16.779449 
-100 1:-0.36667966 2:16.792202 
-100 1:-0.34975286 2:16.804649 
-100 1:-0.33282562 2:16.816793 
-100 1:-0.31589764 2:16.828631 
-100 1:-0.29896868 2:16.840165 
-100 1:-0.28203846 2:16.851394 
-100 1:-0.26510671 2:16.862318 
-100 1:-0.24817317 2:16.872938 
-100 1:-0.23123757 2:16.883253 
-100 1:-0.21429964 2:16.893262 
-100 1:-0.19735911 2:16.902967 
-100 1:-0.18041571 2:16.912367 
-100 1:-0.16346918 2:16.921462 
-100 1:-0.14651925 2:16.930252 
-100 1:-0.12956565 2:16.938737 
-100 1:-0.11260811 2:16.946916 
-100 1:-0.095646368 2:16.954791 
-100 1:-0.078680146 2:16.96236 
-100 1:-0.061709178 2:16.969623 
-100 1:-0.044733193 2:16.976581 
-100 1:-0.027751923 2:16.983234 
-100 1:-0.010765095 2:16.98958 
-100 1:2.8787885 2:-0.034384224 
-100 1:2.8647885 2:-0.040127801 
-100 1:2.8507885 2:-0.045843378 
-100 1:2.8367885 2:-0.051530955 
-100 1:2.8227885 2:-0.057190532 
-100 1:2.8087885 2:-0.062822109 
-100 1:2.7947885 2:-0.068425686 
-100 1:2.7807885 2:-0.074001263 
-100 1:2.7667885 2:-0.07954884 
-100 1:2.7527885 2:-0.085068417 
-100 1:2.7387885 2:-0.090559994 
-100 1:2.7247885 2:-0.096023572 
-100 1:2.7107885 2:-0.10145915 
-100 1:2.6967885 2:-0.10686673 
-100 1:2.6827885 2:-0.1122463 
-100 1:2.6687885 2:-0.11759788 
-100 1:2.6547885 2:-0.12292146 
-100 1:2.6407885 2:-0.12821703 
-100 1:2.6267885 2:-0.13348461 
-100 1:2.6127885 2:-0.13872419 
-100 1:2.5987885 2:-0.14393577 
-100 1:2.5847885 2:-0.14911934 
-100 1:2.5707885 2:-0.15427492 
-100 1:2.5567885 2:-0.1594025 
-100 1:2.5427885 2:-0.16450207 
-100 1:2.5287885 2:-0.16957365 
-100 1:2.5147885 2:-0.17461723 
-100 1:2.5007885 2:-0.1796328 
-100 1:2.4867885 2:-0.18462038 
-100 1:2.4727885 2:-0.18957996 
-100 1:2.4587885 2:-0.19451154 
-100 1:2.4447885 2:-0.19941511 
-100 1:2.4307885 2:-0.20429069 
-100 1:2.4167885 2:-0.20913827 
-100 1:2.4027885 2:-0.21395784 
-100 1:2.3887885 2:-0.21874942 
-100 1:2.3747885 2:-0.223513 
-100 1:2.3607885 2:-0.22824858 
-100 1:2.3467885 2:-0.23295615 
-100 1:2.3327885 2:-0.23763573 
-100 1:2.3187885 2:-0.24228731 
-100 1:2.3047885 2:-0.24691088 
-100 1:2.2907885 2:-0.25150646 
-100 1:2.2767885 2:-0.25607404 
-100 1:2.2627885 2:-0.26061362 
-100 1:2.2487885 2:-0.26512519 
-100 1:2.2347885 2:-0.26960877 
-100 1:2.2207885 2:-0.27406435 
-100 1:2.2067885 2:-0.27849192 
-100 1:2.1927885 2:-0.2828915 
-100 1:2.1787885 2:-0.28726308 
-100 1:2.1647885 2:-0.29160665 
-100 1:2.1507885 2:-0.29592223 
-100 1:2.1367885 2:-0.30020981 
-100 1:2.1227885 2:-0.30446939 
-100 1:2.1087885 2:-0.30870096 
-100 1:2.0947885 2:-0.31290454 
-100 1:2.0807885 2:-0.31708012 
-100 1:2.0667885 2:-0.32122769 
-100 1:2.0527885 2:-0.32534727 
-100 1:2.0387885 2:-0.32943885 
-100 1:2.0247885 2:-0.33350243 
-100 1:2.0107885 2:-0.337538 
-100 1:1.9967885 2:-0.34154558 
-100 1:1.9827885 2:-0.34552516 
-100 1:4.5067684 2:-0.045665423 
-100 1:4.4927684 2:-0.05466496 
-100 1:4.4787684 2:-0.063636497 
-100 1:4.4647684 2:-0.072580034 
-100 1:4.4507684 2:-0.08149557 
-100 1:4.4367684 2:-0.090383107 
-100 1:4.4227684 2:-0.099242644 
-100 1:4.4087684 2:-0.10807418 
-100 1:4.3947684 2:-0.11687772 
-100 1:4.3807684 2:-0.12565325 
-100 1:4.3667684 2:-0.13440079 
-100 1:4.3527684 2:-0.14312033 
-100 1:4.3387684 2:-0.15181187 
-100 1:4.3247684 2:-0.1604754 
-100 1:4.3107684 2:-0.16911094 
-100 1:4.2967684 2:-0.17771848 
-100 1:4.2827684 2:-0.18629801 
-100 1:4.2687684 2:-0.19484955 
-100 1:4.2547684 2:-0.20337309 
-100 1:4.2407684 2:-0.21186862 
-100 1:4.2267684 2:-0.22033616 
-100 1:4.2127684 2:-0.2287757 
-100 1:4.1987684 2:-0.23718723 
-100 1:4.1847684 2:-0.24557077 
-100 1:4.1707684 2:-0.25392631 
-100 1:4.1567684 2:-0.26225384 
-100 1:4.1427684 2:-0.27055338 
-100 1:4.1287684 2:-0.27882492 
-100 1:4.1147684 2:-0.28706845 
-100 1:4.1007684 2:-0.29528399 
-100 1:4.0867684 2:-0.30347153 
-100 1:4.0727684 2:-0.31163107 
-100 1:4.0587684 2:-0.3197626 
-100 1:4.0447684 2:-0.32786614 
-100 1:4.0307684 2:-0.33594168 
-100 1:4.0167684 2:-0.34398921 
-100 1:4.0027684 2:-0.35200875 
-100 1:3.9887684 2:-0.36000029 
-100 1:3.9747684 2:-0.36796382 
-100 1:3.9607684 2:-0.37589936 
-100 1:3.9467684 2:-0.3838069 
-100 1:3.9327684 2:-0.39168643 
-100 1:3.9187684 2:-0.39953797 
-100 1:3.9047684 2:-0.40736151 
-100 1:3.8907684 2:-0.41515704 
-100 1:3.8767684 2:-0.42292458 
-100 1:3.8627684 2:-0.43066412 
-100 1:3.8487684 2:-0.43837565 
-100 1:3.8347684 2:-0.44605919 
-100 1:3.8207684 2:-0.45371473 
-100 1:3.8067684 2:-0.46134227 
-100 1:3.7927684 2:-0.4689418 
-100 1:3.7787684 2:-0.47651334 
-100 1:3.7647684 2:-0.48405688 
-100 1:3.7507684 2:-0.49157241 
-100 1:3.7367684 2:-0.49905995 
-100 1:3.7227684 2:-0.50651949 
-100 1:3.7087684 2:-0.51395102 
-100 1:3.6947684 2:-0.52135456 
-100 1:3.6807684 2:-0.5287301 
-100 1:3.6667684 2:-0.53607763 
-100 1:3.6527684 2:-0.54339717 
-100 1:3.6387684 2:-0.55068871 
-100 1:3.6247684 2:-0.55795224 
-100 1:3.6107684 2:-0.56518778 
-100 1:3.5967684 2:-0.57239532 
-100 1:3.5827684 2:-0.57957485 
-100 1:3.5687684 2:-0.58672639 
-100 1:3.5547684 2:-0.59384993 
-100 1:3.5407684 2:-0.60094547 
-100 1:3.5267684 2:-0.608013 
-100 1:3.5127684 2:-0.61505254 
-100 1:3.4987684 2:-0.62206408 
-100 1:3.4847684 2:-0.62904761 
-100 1:3.4707684 2:-0.63600315 
-100 1:3.4567684 2:-0.64293069 
-100 1:3.4427684 2:-0.64983022 
-100 1:3.4287684 2:-0.65670176 
-100 1:3.4147684 2:-0.6635453 
-100 1:3.4007684 2:-0.67036083 
-100 1:3.3867684 2:-0.67714837 
-100 1:3.3727684 2:-0.68390791 
-100 1:3.3587684 2:-0.69063944 
-100 1:3.3447684 2:-0.69734298 
-100 1:3.3307684 2:-0.70401852 
-100 1:3.3167684 2:-0.71066605 
-100 1:3.3027684 2:-0.71728559 
-100 1:3.2887684 2:-0.72387713 
-100 1:3.2747684 2:-0.73044067 
-100 1:3.2607684 2:-0.7369762 
-100 1:3.2467684 2:-0.74348374 
-100 1:3.2327684 2:-0.74996328 
-100 1:3.2187684 2:-0.75641481 
-100 1:3.2047684 2:-0.76283835 
-100 1:3.1907684 2:-0.76923389 
-100 1:3.1767684 2:-0.77560142 
-100 1:3.1627684 2:-0.78194096 
-100 1:3.1487684 2:-0.7882525 
-100 1:3.1347684 2:-0.79453603 
-100 1:3.1207684 2:-0.80079157 
-100 1:3.1067684 2:-0.80701911 
-100 1:3.0927684 2:-0.81321864 
-100 1:3.0787684 2:-0.81939018 
-100 1:3.0647684 2:-0.82553372 
-100 1:3.0507684 2:-0.83164925 
-100 1:3.0367684 2:-0.83773679 
-100 1:3.0227684 2:-0.84379633 
-100 1:3.0087684 2:-0.84982787 
-100 1:2.9947684 2:-0.8558314 
-100 1:2.9807684 2:-0.86180694 
-100 1:2.9667684 2:-0.86775448 
-100 1:2.9527684 2:-0.87367401 
-100 1:2.9387684 2:-0.87956555 
-100 1:2.9247684 2:-0.88542909 
-100 1:2.9107684 2:-0.89126462 
-100 1:2.8967684 2:-0.89707216 
-100 1:2.8827684 2:-0.9028517 
-100 1:2.8687684 2:-0.90860323 
-100 1:2.8547684 2:-0.91432677 
-100 1:2.8407684 2:-0.92002231 
-100 1:2.8267684 2:-0.92568984 
-100 1:2.8127684 2:-0.93132938 
-100 1:2.7987684 2:-0.93694092 
-100 1:2.7847684 2:-0.94252445 
-100 1:2.7707684 2:-0.94807999 
-100 1:2.7567684 2:-0.95360753 
-100 1:2.7427684 2:-0.95910707 
-100 1:2.7287684 2:-0.9645786 
-100 1:2.7147684 2:-0.97002214 
-100 1:2.7007684 2:-0.97543768 
-100 1:2.6867684 2:-0.98082521 
-100 1:2.6727684 2:-0.98618475 
-100 1:2.6587684 2:-0.99151629 
-100 1:2.6447684 2:-0.99681982 
-100 1:2.6307684 2:-1.0020954 
-100 1:2.6167684 2:-1.0073429 
-100 1:2.6027684 2:-1.0125624 
-100 1:2.5887684 2:-1.017754 
-100 1:2.5747684 2:-1.0229175 
-100 1:2.5607684 2:-1.028053 
-100 1:2.5467684 2:-1.0331606 
-100 1:2.5327684 2:-1.0382401 
-100 1:2.5187684 2:-1.0432917 
-100 1:2.5047684 2:-1.0483152 
-100 1:2.4907684 2:-1.0533107 
-100 1:2.4767684 2:-1.0582783 
-100 1:2.4627684 2:-1.0632178 
-100 1:2.4487684 2:-1.0681293 
-100 1:2.4347684 2:-1.0730129 
-100 1:2.4207684 2:-1.0778684 
-100 1:2.4067684 2:-1.0826959 
-100 1:2.3927684 2:-1.0874955 
-100 1:2.3787684 2:-1.092267 
-100 1:2.3647684 2:-1.0970106 
-100 1:2.3507684 2:-1.1017261 
-100 1:2.3367684 2:-1.1064136 
-100 1:2.3227684 2:-1.1110732 
-100 1:2.3087684 2:-1.1157047 
-100 1:2.2947684 2:-1.1203082 
-100 1:2.2807684 2:-1.1248838 
-100 1:2.4778217 2:-0.0270521 
-100 1:2.4638217 2:-0.031993744 
-100 1:2.4498217 2:-0.036907387 
-100 1:2.4358217 2:-0.04179303 
-100 1:2.4218217 2:-0.046650674 
-100 1:2.4078217 2:-0.051480317 
-100 1:2.3938217 2:-0.056281961 
-100 1:2.3798217 2:-0.061055604 
-100 1:2.3658217 2:-0.065801247 
-100 1:2.3518217 2:-0.070518891 
-100 1:2.3378217 2:-0.075208534 
-100 1:2.3238217 2:-0.079870178 
-100 1:2.3098217 2:-0.084503821 
-100 1:2.2958217 2:-0.089109464 
-100 1:2.2818217 2:-0.093687108 
-100 1:2.2678217 2:-0.098236751 
-100 1:2.2538217 2:-0.10275839 
-100 1:2.2398217 2:-0.10725204 
-100 1:2.2258217 2:-0.11171768 
-100 1:2.2118217 2:-0.11615532 
-100 1:2.1978217 2:-0.12056497 
-100 1:2.1838217 2:-0.12494661 
-100 1:2.1698217 2:-0.12930025 
-100 1:2.1558217 2:-0.1336259 
-100 1:2.1418217 2:-0.13792354 
-100 1:2.1278217 2:-0.14219318 
-100 1:2.1138217 2:-0.14643483 
-100 1:2.0998217 2:-0.15064847 
-100 1:2.0858217 2:-0.15483412 
-100 1:2.0718217 2:-0.15899176 
-100 1:2.0578217 2:-0.1631214 
-100 1:2.0438217 2:-0.16722305 
-100 1:2.0298217 2:-0.17129669 
-100 1:2.0158217 2:-0.17534233 
-100 1:2.0018217 2:-0.17935998 
-100 1:1.9878217 2:-0.18334962 
-100 1:1.9738217 2:-0.18731126 
-100 1:1.9598217 2:-0.19124491 
-100 1:1.9458217 2:-0.19515055 
-100 1:1.9318217 2:-0.19902819 
-100 1:8.0933177 2:-0.081559038 
-100 1:8.0793177 2:-0.097731674 
-100 1:8.0653177 2:-0.11387631 
-100 1:8.0513177 2:-0.12999294 
-100 1:8.0373177 2:-0.14608158 
-100 1:8.0233177 2:-0.16214222 
-100 1:8.0093177 2:-0.17817485 
-100 1:7.9953177 2:-0.19417949 
-100 1:7.9813177 2:-0.21015612 
-100 1:7.9673177 2:-0.22610476 
-100 1:7.9533177 2:-0.24202539 
-100 1:7.9393177 2:-0.25791803 
-100 1:7.9253177 2:-0.27378266 
-100 1:7.9113177 2:-0.2896193 
-100 1:7.8973177 2:-0.30542793 
-100 1:7.8833177 2:-0.32120857 
-100 1:7.8693177 2:-0.33696121 
-100 1:7.8553177 2:-0.35268584 
-100 1:7.8413177 2:-0.36838248 
-100 1:7.8273177 2:-0.38405111 
-100 1:7.8133177 2:-0.39969175 
-100 1:7.7993177 2:-0.41530438 
-100 1:7.7853177 2:-0.43088902 
-100 1:7.7713177 2:-0.44644565 
-100 1:7.7573177 2:-0.46197429 
-100 1:7.7433177 2:-0.47747492 
-100 1:7.7293177 2:-0.49294756 
-100 1:7.7153177 2:-0.5083922 
-100 1:7.7013177 2:-0.52380883 
-100 1:7.6873177 2:-0.53919747 
-100 1:7.6733177 2:-0.5545581 
-100 1:7.6593177 2:-0.56989074 
-100 1:7.6453177 2:-0.58519537 
-100 1:7.6313177 2:-0.60047201 
-100 1:7.6173177 2:-0.61572064 
-100 1:7.6033177 2:-0.63094128 
-100 1:7.5893177 2:-0.64613391 
-100 1:7.5753177 2:-0.66129855 
-100 1:7.5613177 2:-0.67643519 
-100 1:7.5473177 2:-0.69154382 
-100 1:7.5333177 2:-0.70662446 
-100 1:7.5193177 2:-0.72167709 
-100 1:7.5053177 2:-0.73670173 
-100 1:7.4913177 2:-0.75169836 
-100 1:7.4773177 2:-0.766667 
-100 1:7.4633177 2:-0.78160763 
-100 1:7.4493177 2:-0.79652027 
-100 1:7.4353177 2:-0.8114049 
-100 1:7.4213177 2:-0.82626154 
-100 1:7.4073177 2:-0.84109018 
-100 1:7.3933177 2:-0.85589081 
-100 1:7.3793177 2:-0.87066345 
-100 1:7.3653177 2:-0.88540808 
-100 1:7.3513177 2:-0.90012472 
-100 1:7.3373177 2:-0.91481335 
-100 1:7.3233177 2:-0.92947399 
-100 1:7.3093177 2:-0.94410662 
-100 1:7.2953177 2:-0.95871126 
-100 1:7.2813177 2:-0.9732879 
-100 1:7.2673177 2:-0.98783653 
-100 1:7.2533177 2:-1.0023572 
-100 1:7.2393177 2:-1.0168498 
-100 1:7.2253177 2:-1.0313144 
-100 1:7.2113177 2:-1.0457511 
-100 1:7.1973177 2:-1.0601597 
-100 1:7.1833177 2:-1.0745403 
-100 1:7.1693177 2:-1.088893 
-100 1:7.1553177 2:-1.1032176 
-100 1:7.1413177 2:-1.1175142 
-100 1:7.1273177 2:-1.1317829 
-100 1:7.1133177 2:-1.1460235 
-100 1:7.0993177 2:-1.1602362 
-100 1:7.0853177 2:-1.1744208 
-100 1:7.0713177 2:-1.1885774 
-100 1:7.0573177 2:-1.2027061 
-100 1:7.0433177 2:-1.2168067 
-100 1:7.0293177 2:-1.2308793 
-100 1:7.0153177 2:-1.244924 
-100 1:7.0013177 2:-1.2589406 
-100 1:6.9873177 2:-1.2729292 
-100 1:6.9733177 2:-1.2868899 
-100 1:6.9593177 2:-1.3008225 
-100 1:6.9453177 2:-1.3147271 
-100 1:6.9313177 2:-1.3286038 
-100 1:6.9173177 2:-1.3424524 
-100 1:6.9033177 2:-1.3562731 
-100 1:6.8893177 2:-1.3700657 
-100 1:6.8753177 2:-1.3838303 
-100 1:6.8613177 2:-1.397567 
-100 1:6.8473177 2:-1.4112756 
-100 1:6.8333177 2:-1.4249562 
-100 1:6.8193177 2:-1.4386089 
-100 1:6.8053177 2:-1.4522335 
-100 1:6.7913177 2:-1.4658301 
-100 1:6.7773177 2:-1.4793988 
-100 1:6.7633177 2:-1.4929394 
-100 1:6.7493177 2:-1.506452 
-100 1:6.7353177 2:-1.5199367 
-100 1:6.7213177 2:-1.5333933 
-100 1:6.7073177 2:-1.5468219 
-100 1:6.6933177 2:-1.5602226 
-100 1:6.6793177 2:-1.5735952 
-100 1:6.6653177 2:-1.5869399 
-100 1:6.6513177 2:-1.6002565 
-100 1:6.6373177 2:-1.6135451 
-100 1:6.6233177 2:-1.6268058 
-100 1:6.6093177 2:-1.6400384 
-100 1:6.5953177 2:-1.653243 
-100 1:6.5813177 2:-1.6664197 
-100 1:6.5673177 2:-1.6795683 
-100 1:6.5533177 2:-1.6926889 
-100 1:6.5393177 2:-1.7057816 
-100 1:6.5253177 2:-1.7188462 
-100 1:6.5113177 2:-1.7318828 
-100 1:6.4973177 2:-1.7448915 
-100 1:6.4833177 2:-1.7578721 
-100 1:6.4693177 2:-1.7708248 
-100 1:6.4553177 2:-1.7837494 
-100 1:6.4413177 2:-1.796646 
-100 1:6.4273177 2:-1.8095147 
-100 1:6.4133177 2:-1.8223553 
-100 1:6.3993177 2:-1.8351679 
-100 1:6.3853177 2:-1.8479526 
-100 1:6.3713177 2:-1.8607092 
-100 1:6.3573177 2:-1.8734378 
-100 1:6.3433177 2:-1.8861385 
-100 1:6.3293177 2:-1.8988111 
-100 1:6.3153177 2:-1.9114557 
-100 1:6.3013177 2:-1.9240724 
-100 1:6.2873177 2:-1.936661 
-100 1:6.2733177 2:-1.9492216 
-100 1:6.2593177 2:-1.9617543 
-100 1:6.2453177 2:-1.9742589 
-100 1:6.2313177 2:-1.9867356 
-100 1:6.2173177 2:-1.9991842 
-100 1:6.2033177 2:-2.0116048 
-100 1:6.1893177 2:-2.0239975 
-100 1:6.1753177 2:-2.0363621 
-100 1:6.1613177 2:-2.0486987 
-100 1:6.1473177 2:-2.0610074 
-100 1:6.1333177 2:-2.073288 
-100 1:6.1193177 2:-2.0855406 
-100 1:6.1053177 2:-2.0977653 
-100 1:6.0913177 2:-2.1099619 
-100 1:6.0773177 2:-2.1221305 
-100 1:6.0633177 2:-2.1342712 
-100 1:6.0493177 2:-2.1463838 
-100 1:6.0353177 2:-2.1584685 
-100 1:6.0213177 2:-2.1705251 
-100 1:6.0073177 2:-2.1825537 
-100 1:5.9933177 2:-2.1945544 
-100 1:5.9793177 2:-2.206527 
-100 1:5.9653177 2:-2.2184716 
-100 1:5.9513177 2:-2.2303883 
-100 1:5.9373177 2:-2.2422769 
-100 1:5.9233177 2:-2.2541375 
-100 1:5.9093177 2:-2.2659702 
-100 1:5.8953177 2:-2.2777748 
-100 1:5.8813177 2:-2.2895514 
-100 1:5.8673177 2:-2.3013001 
-100 1:5.8533177 2:-2.3130207 
-100 1:5.8393177 2:-2.3247133 
-100 1:5.8253177 2:-2.336378 
-100 1:5.8113177 2:-2.3480146 
-100 1:5.7973177 2:-2.3596233 
-100 1:5.7833177 2:-2.3712039 
-100 1:5.7693177 2:-2.3827565 
-100 1:5.7553177 2:-2.3942812 
-100 1:5.7413177 2:-2.4057778 
-100 1:5.7273177 2:-2.4172464 
-100 1:5.7133177 2:-2.4286871 
-100 1:5.6993177 2:-2.4400997 
-100 1:5.6853177 2:-2.4514843 
-100 1:5.6713177 2:-2.462841 
-100 1:5.6573177 2:-2.4741696 
-100 1:5.6433177 2:-2.4854702 
-100 1:5.6293177 2:-2.4967429 
-100 1:5.6153177 2:-2.5079875 
-100 1:5.6013177 2:-2.5192042 
-100 1:5.5873177 2:-2.5303928 
-100 1:5.5733177 2:-2.5415534 
-100 1:5.5593177 2:-2.5526861 
-100 1:5.5453177 2:-2.5637907 
-100 1:5.5313177 2:-2.5748673 
-100 1:5.5173177 2:-2.585916 
-100 1:5.5033177 2:-2.5969366 
-100 1:5.4893177 2:-2.6079292 
-100 1:5.4753177 2:-2.6188939 
-100 1:5.4613177 2:-2.6298305 
-100 1:5.4473177 2:-2.6407391 
-100 1:5.4333177 2:-2.6516198 
-100 1:5.4193177 2:-2.6624724 
-100 1:5.4053177 2:-2.673297 
-100 1:5.3913177 2:-2.6840937 
-100 1:5.3773177 2:-2.6948623 
-100 1:5.3633177 2:-2.705603 
-100 1:5.3493177 2:-2.7163156 
-100 1:5.3353177 2:-2.7270002 
-100 1:5.3213177 2:-2.7376569 
-100 1:5.3073177 2:-2.7482855 
-100 1:5.2933177 2:-2.7588861 
-100 1:5.2793177 2:-2.7694588 
-100 1:5.2653177 2:-2.7800034 
-100 1:5.2513177 2:-2.79052 
-100 1:5.2373177 2:-2.8010087 
-100 1:5.2233177 2:-2.8114693 
-100 1:5.2093177 2:-2.8219019 
-100 1:5.1953177 2:-2.8323066 
-100 1:5.1813177 2:-2.8426832 
-100 1:5.1673177 2:-2.8530318 
-100 1:5.1533177 2:-2.8633525 
-100 1:5.1393177 2:-2.8736451 
-100 1:5.1253177 2:-2.8839098 
-100 1:5.1113177 2:-2.8941464 
-100 1:5.0973177 2:-2.904355 
-100 1:5.0833177 2:-2.9145357 
-100 1:5.0693177 2:-2.9246883 
-100 1:5.0553177 2:-2.9348129 
-100 1:5.0413177 2:-2.9449096 
-100 1:5.0273177 2:-2.9549782 
-100 1:5.0133177 2:-2.9650188 
-100 1:4.9993177 2:-2.9750315 
-100 1:4.9853177 2:-2.9850161 
-100 1:4.9713177 2:-2.9949727 
-100 1:4.9573177 2:-3.0049014 
-100 1:4.9433177 2:-3.014802 
-100 1:4.9293177 2:-3.0246747 
-100 1:4.9153177 2:-3.0345193 
-100 1:4.9013177 2:-3.0443359 
-100 1:4.8873177 2:-3.0541246 
-100 1:4.8733177 2:-3.0638852 
-100 1:4.8593177 2:-3.0736178 
-100 1:4.8453177 2:-3.0833225 
-100 1:4.8313177 2:-3.0929991 
-100 1:4.8173177 2:-3.1026477 
-100 1:4.8033177 2:-3.1122684 
-100 1:4.7893177 2:-3.121861 
-100 1:4.7753177 2:-3.1314256 
-100 1:4.7613177 2:-3.1409623 
-100 1:4.7473177 2:-3.1504709 
-100 1:4.7333177 2:-3.1599515 
-100 1:4.7193177 2:-3.1694042 
-100 1:4.7053177 2:-3.1788288 
-100 1:4.6913177 2:-3.1882255 
-100 1:4.6773177 2:-3.1975941 
-100 1:4.6633177 2:-3.2069347 
-100 1:4.6493177 2:-3.2162474 
-100 1:4.6353177 2:-3.225532 
-100 1:4.6213177 2:-3.2347886 
-100 1:4.6073177 2:-3.2440173 
-100 1:4.5933177 2:-3.2532179 
-100 1:4.5793177 2:-3.2623905 
-100 1:4.5653177 2:-3.2715352 
-100 1:4.5513177 2:-3.2806518 
-100 1:4.5373177 2:-3.2897404 
-100 1:4.5233177 2:-3.2988011 
-100 1:4.5093177 2:-3.3078337 
-100 1:4.4953177 2:-3.3168384 
-100 1:4.4813177 2:-3.325815 
-100 1:4.4673177 2:-3.3347636 
-100 1:4.4533177 2:-3.3436843 
-100 1:4.4393177 2:-3.3525769 
-100 1:4.4253177 2:-3.3614415 
-100 1:4.4113177 2:-3.3702782 
-100 1:4.3973177 2:-3.3790868 
-100 1:4.3833177 2:-3.3878674 
-100 1:4.3693177 2:-3.3966201 
-100 1:4.3553177 2:-3.4053447 
-100 1:4.3413177 2:-3.4140413 
-100 1:4.3273177 2:-3.42271 
-100 1:4.3133177 2:-3.4313506 
-100 1:4.2993177 2:-3.4399632 
-100 1:4.2853177 2:-3.4485479 
-100 1:4.2713177 2:-3.4571045 
-100 1:4.2573177 2:-3.4656332 
-100 1:4.2433177 2:-3.4741338 
-100 1:4.2293177 2:-3.4826064 
-100 1:4.2153177 2:-3.4910511 
-100 1:4.2013177 2:-3.4994677 
-100 1:4.1873177 2:-3.5078563 
-100 1:4.1733177 2:-3.516217 
-100 1:4.1593177 2:-3.5245496 
-100 1:4.1453177 2:-3.5328542 
-100 1:4.1313177 2:-3.5411309 
-100 1:4.1173177 2:-3.5493795 
-100 1:4.1033177 2:-3.5576001 
-100 1:4.0893177 2:-3.5657928 
-100 1:4.0753177 2:-3.5739574 
-100 1:4.0613177 2:-3.5820941 
-100 1:4.0473177 2:-3.5902027 
-100 1:4.0333177 2:-3.5982833 
-100 1:4.0193177 2:-3.606336 
-100 1:4.0053177 2:-3.6143606 
-100 1:3.9913177 2:-3.6223572 
-100 1:3.9773177 2:-3.6303259 
-100 1:3.9633177 2:-3.6382665 
-100 1:3.9493177 2:-3.6461791 
-100 1:3.9353177 2:-3.6540638 
-100 1:3.9213177 2:-3.6619204 
-100 1:3.9073177 2:-3.669749 
-100 1:3.8933177 2:-3.6775497 
-100 1:3.8793177 2:-3.6853223 
-100 1:3.8653177 2:-3.6930669 
-100 1:3.8513177 2:-3.7007836 
-100 1:3.8373177 2:-3.7084722 
-100 1:3.8233177 2:-3.7161329 
-100 1:3.8093177 2:-3.7237655 
-100 1:3.7953177 2:-3.7313701 
-100 1:3.7813177 2:-3.7389468 
-100 1:3.7673177 2:-3.7464954 
-100 1:3.7533177 2:-3.754016 
-100 1:3.7393177 2:-3.7615087 
-100 1:3.7253177 2:-3.7689733 
-100 1:3.7113177 2:-3.7764099 
-100 1:3.6973177 2:-3.7838186 
-100 1:3.6833177 2:-3.7911992 
-100 1:3.6693177 2:-3.7985518 
-100 1:3.6553177 2:-3.8058765 
-100 1:3.6413177 2:-3.8131731 
-100 1:3.6273177 2:-3.8204418 
-100 1:3.6133177 2:-3.8276824 
-100 1:3.5993177 2:-3.834895 
-100 1:3.5853177 2:-3.8420797 
-100 1:3.5713177 2:-3.8492363 
-100 1:3.5573177 2:-3.8563649 
-100 1:3.5433177 2:-3.8634656 
-100 1:3.5293177 2:-3.8705382 
-100 1:3.5153177 2:-3.8775828 
-100 1:3.5013177 2:-3.8845995 
-100 1:3.4873177 2:-3.8915881 
-100 1:3.4733177 2:-3.8985487 
-100 1:3.4593177 2:-3.9054814 
-100 1:3.4453177 2:-3.912386 
-100 1:3.4313177 2:-3.9192626 
-100 1:3.4173177 2:-3.9261113 
-100 1:3.4033177 2:-3.9329319 
-100 1:3.3893177 2:-3.9397246 
-100 1:3.3753177 2:-3.9464892 
-100 1:3.3613177 2:-3.9532258 
-100 1:3.3473177 2:-3.9599345 
-66.415626458520833 1:3.3333177 2:-3.9666151 
-100 1:4.9552849 2:-0.053402331 
-100 1:4.9412849 2:-0.063298901 
-100 1:4.9272849 2:-0.073167471 
-100 1:4.9132849 2:-0.083008041 
-100 1:4.8992849 2:-0.09282061 
-100 1:4.8852849 2:-0.10260518 
-100 1:4.8712849 2:-0.11236175 
-100 1:4.8572849 2:-0.12209032 
-100 1:4.8432849 2:-0.13179089 
-100 1:4.8292849 2:-0.14146346 
-100 1:4.8152849 2:-0.15110803 
-100 1:4.8012849 2:-0.1607246 
-100 1:4.7872849 2:-0.17031317 
-100 1:4.7732849 2:-0.17987374 
-100 1:4.7592849 2:-0.18940631 
-100 1:4.7452849 2:-0.19891088 
-100 1:4.7312849 2:-0.20838745 
-100 1:4.7172849 2:-0.21783602 
-100 1:4.7032849 2:-0.22725659 
-100 1:4.6892849 2:-0.23664916 
-100 1:4.6752849 2:-0.24601373 
-100 1:4.6612849 2:-0.2553503 
-100 1:4.6472849 2:-0.26465887 
-100 1:4.6332849 2:-0.27393944 
-100 1:4.6192849 2:-0.28319201 
-100 1:4.6052849 2:-0.29241658 
-100 1:4.5912849 2:-0.30161315 
-100 1:4.5772849 2:-0.31078172 
-100 1:4.5632849 2:-0.31992229 
-100 1:4.5492849 2:-0.32903486 
-100 1:4.5352849 2:-0.33811943 
-100 1:4.5212849 2:-0.347176 
-100 1:4.5072849 2:-0.35620457 
-100 1:4.4932849 2:-0.36520514 
-100 1:4.4792849 2:-0.37417771 
-100 1:4.4652849 2:-0.38312228 
-100 1:4.4512849 2:-0.39203885 
-100 1:4.4372849 2:-0.40092742 
-100 1:4.4232849 2:-0.40978799 
-100 1:4.4092849 2:-0.41862056 
-100 1:4.3952849 2:-0.42742513 
-100 1:4.3812849 2:-0.43620169 
-100 1:4.3672849 2:-0.44495026 
-100 1:4.3532849 2:-0.45367083 
-100 1:4.3392849 2:-0.4623634 
-100 1:4.3252849 2:-0.47102797 
-100 1:4.3112849 2:-0.47966454 
-100 1:4.2972849 2:-0.48827311 
-100 1:4.2832849 2:-0.49685368 
-100 1:4.2692849 2:-0.50540625 
-100 1:4.2552849 2:-0.51393082 
-100 1:4.2412849 2:-0.52242739 
-100 1:4.2272849 2:-0.53089596 
-100 1:4.2132849 2:-0.53933653 
-100 1:4.1992849 2:-0.5477491 
-100 1:4.1852849 2:-0.55613367 
-100 1:4.1712849 2:-0.56449024 
-100 1:4.1572849 2:-0.57281881 
-100 1:4.1432849 2:-0.58111938 
-100 1:4.1292849 2:-0.58939195 
-100 1:4.1152849 2:-0.59763652 
-100 1:4.1012849 2:-0.60585309 
-100 1:4.0872849 2:-0.61404166 
-100 1:4.0732849 2:-0.62220223 
-100 1:4.0592849 2:-0.6303348 
-100 1:4.0452849 2:-0.63843937 
-100 1:4.0312849 2:-0.64651594 
-100 1:4.0172849 2:-0.65456451 
-100 1:4.0032849 2:-0.66258508 
-100 1:3.9892849 2:-0.67057765 
-100 1:3.9752849 2:-0.67854222 
-100 1:3.9612849 2:-0.68647879 
-100 1:3.9472849 2:-0.69438736 
-100 1:3.9332849 2:-0.70226793 
-100 1:3.9192849 2:-0.7101205 
-100 1:3.9052849 2:-0.71794507 
-100 1:3.8912849 2:-0.72574164 
-100 1:3.8772849 2:-0.73351021 
-100 1:3.8632849 2:-0.74125078 
-100 1:3.8492849 2:-0.74896335 
-100 1:3.8352849 2:-0.75664792 
-100 1:3.8212849 2:-0.76430449 
-100 1:3.8072849 2:-0.77193306 
-100 1:3.7932849 2:-0.77953363 
-100 1:3.7792849 2:-0.7871062 
-100 1:3.7652849 2:-0.79465077 
-100 1:3.7512849 2:-0.80216734 
-100 1:3.7372849 2:-0.80965591 
-100 1:3.7232849 2:-0.81711648 
-100 1:3.7092849 2:-0.82454905 
-100 1:3.6952849 2:-0.83195362 
-100 1:3.6812849 2:-0.83933019 
-100 1:3.6672849 2:-0.84667876 
-100 1:3.6532849 2:-0.85399933 
-100 1:3.6392849 2:-0.8612919 
-100 1:3.6252849 2:-0.86855647 
-100 1:3.6112849 2:-0.87579304 
-100 1:3.5972849 2:-0.88300161 
-100 1:3.5832849 2:-0.89018218 
-100 1:3.5692849 2:-0.89733475 
-100 1:3.5552849 2:-0.90445932 
-100 1:3.5412849 2:-0.91155589 
-100 1:3.5272849 2:-0.91862446 
-100 1:3.5132849 2:-0.92566503 
-100 1:3.4992849 2:-0.9326776 
-100 1:3.4852849 2:-0.93966217 
-100 1:3.4712849 2:-0.94661874 
-100 1:3.4572849 2:-0.95354731 
-100 1:3.4432849 2:-0.96044788 
-100 1:3.4292849 2:-0.96732045 
-100 1:3.4152849 2:-0.97416501 
-100 1:3.4012849 2:-0.98098158 
-100 1:3.3872849 2:-0.98777015 
-100 1:3.3732849 2:-0.99453072 
-100 1:3.3592849 2:-1.0012633 
-100 1:3.3452849 2:-1.0079679 
-100 1:3.3312849 2:-1.0146444 
-100 1:3.3172849 2:-1.021293 
-100 1:3.3032849 2:-1.0279136 
-100 1:3.2892849 2:-1.0345061 
-100 1:3.2752849 2:-1.0410707 
-100 1:3.2612849 2:-1.0476073 
-100 1:3.2472849 2:-1.0541159 
-100 1:3.2332849 2:-1.0605964 
-100 1:3.2192849 2:-1.067049 
-100 1:3.2052849 2:-1.0734736 
-100 1:3.1912849 2:-1.0798701 
-100 1:3.1772849 2:-1.0862387 
-100 1:3.1632849 2:-1.0925793 
-100 1:3.1492849 2:-1.0988918 
-100 1:3.1352849 2:-1.1051764 
-100 1:3.1212849 2:-1.111433 
-100 1:3.1072849 2:-1.1176616 
-100 1:3.0932849 2:-1.1238621 
-100 1:3.0792849 2:-1.1300347 
-100 1:3.0652849 2:-1.1361793 
-100 1:3.0512849 2:-1.1422958 
-100 1:3.0372849 2:-1.1483844 
-100 1:3.0232849 2:-1.154445 
-100 1:3.0092849 2:-1.1604775 
-100 1:2.9952849 2:-1.1664821 
-100 1:2.9812849 2:-1.1724587 
-100 1:2.9672849 2:-1.1784073 
-100 1:2.9532849 2:-1.1843278 
-100 1:2.9392849 2:-1.1902204 
-100 1:2.9252849 2:-1.196085 
-100 1:2.9112849 2:-1.2019215 
-100 1:2.8972849 2:-1.2077301 
-100 1:2.8832849 2:-1.2135107 
-100 1:2.8692849 2:-1.2192632 
-100 1:2.8552849 2:-1.2249878 
-100 1:2.8412849 2:-1.2306844 
-100 1:2.8272849 2:-1.2363529 
-100 1:2.8132849 2:-1.2419935 
-100 1:2.7992849 2:-1.2476061 
-100 1:2.7852849 2:-1.2531907 
-100 1:2.7712849 2:-1.2587472 
-100 1:2.7572849 2:-1.2642758 
-100 1:2.7432849 2:-1.2697764 
-100 1:2.7292849 2:-1.2752489 
-100 1:2.7152849 2:-1.2806935 
-100 1:2.7012849 2:-1.2861101 
-100 1:2.6872849 2:-1.2914986 
-100 1:2.6732849 2:-1.2968592 
-100 1:2.6592849 2:-1.3021918 
-100 1:2.6452849 2:-1.3074964 
-100 1:2.6312849 2:-1.3127729 
-100 1:2.6172849 2:-1.3180215 
-100 1:2.6032849 2:-1.3232421 
-100 1:2.5892849 2:-1.3284346 
-100 1:2.5752849 2:-1.3335992 
-100 1:2.5612849 2:-1.3387358 
-100 1:2.5472849 2:-1.3438443 
-100 1:2.5332849 2:-1.3489249 
-100 1:2.5192849 2:-1.3539775 
-100 1:2.5052849 2:-1.3590021 
-100 1:2.4912849 2:-1.3639986 
-100 1:2.4772849 2:-1.3689672 
-100 1:2.4632849 2:-1.3739078 
-100 1:2.4492849 2:-1.3788203 
-100 1:2.4352849 2:-1.3837049 
-100 1:2.4212849 2:-1.3885615 
-100 1:2.4072849 2:-1.39339 
-100 1:2.3932849 2:-1.3981906 
-100 1:2.3792849 2:-1.4029632 
-100 1:2.5478217 2:-0.0019238833 
-100 1:2.5338217 2:-0.0070055266 
-100 1:2.5198217 2:-0.01205917 
-100 1:2.5058217 2:-0.017084813 
-100 1:2.4918217 2:-0.022082457 
-100 1:4.5767684 2:-0.00024773878 
-100 1:4.5627684 2:-0.0093872756 
-100 1:4.5487684 2:-0.018498812 
-100 1:4.5347684 2:-0.027582349 
-100 1:4.5207684 2:-0.036637886 
-100 1:2.9487885 2:-0.0052463383 
-100 1:2.9347885 2:-0.011129915 
-100 1:2.9207885 2:-0.016985492 
-100 1:2.9067885 2:-0.02281307 
-100 1:2.8927885 2:-0.028612647 
-100 1:5.0252849 2:-0.0034994817 
-100 1:5.0112849 2:-0.013536052 
-100 1:4.9972849 2:-0.023544621 
-100 1:4.9832849 2:-0.033525191 
-100 1:4.9692849 2:-0.043477761 
-100 1:8.1633177 2:-0.00027586088 
-100 1:8.1493177 2:-0.016588496 
-100 1:8.1353177 2:-0.032873132 
-100 1:8.1213177 2:-0.049129767 
-100 1:8.1073177 2:-0.065358403 
