svm_type c_svc
kernel_type polynomial
degree 1
gamma 1
coef0 1
nr_class 2
total_sv 16
rho -28.581863641738892
label 1 -1
nr_sv 8 8
SV
100 1:0.954 
100 1:0.96 
100 1:0.966 
100 1:0.972 
100 1:0.978 
100 1:0.984 
100 1:0.99 
100 1:0.996 
-100 1:1.0155399 
-100 1:1.0184061 
-100 1:1.0212579 
-100 1:1.0009892 
-100 1:1.0039289 
-100 1:1.0068538 
-100 1:1.0097638 
-100 1:1.0126592 
