svm_type c_svc
kernel_type polynomial
degree 1
gamma 0.5
coef0 1
nr_class 2
total_sv 35
rho 0.6077819702039331
label 1 -1
nr_sv 17 18
SV
100 1:0.0067672202 2:5.1577165 
100 1:0.01676722 2:5.1377142 
100 1:0.02676722 2:5.1177098 
100 1:0.03676722 2:5.0977035 
100 1:0.0073531151 2:9.3490028 
100 1:0.017353115 2:9.3290003 
100 1:0.027353115 2:9.3089959 
80.16812017788402 1:0.037353115 2:9.2889894 
100 1:0.003577263 2:10.306102 
100 1:0.013577263 2:10.2861 
100 1:0.023577263 2:10.266097 
100 1:0.033577263 2:10.246091 
100 1:0.0038711483 2:14.310654 
100 1:0.013871148 2:14.290652 
100 1:0.023871148 2:14.270648 
100 1:0.0036814391 2:16.98612 
100 1:0.013681439 2:16.966118 
-100 1:-0.022302741 2:5.1444237 
-100 1:-0.01715474 2:5.1507788 
-100 1:-0.012000608 2:5.1570412 
-100 1:-0.006840383 2:5.1632108 
-100 1:-0.0016741058 2:5.1692874 
-18.299299269988808 1:-0.030546328 2:9.343193 
-100 1:-0.021199211 2:9.3496587 
-100 1:-0.011846109 2:9.3559562 
-100 1:-0.0024870158 2:9.3620852 
-100 1:-0.027240135 2:10.296722 
-100 1:-0.016939702 2:10.30312 
-100 1:-0.0066333125 2:10.309332 
-100 1:-0.037412685 2:14.301795 
-100 1:-0.023106663 2:14.30834 
-100 1:-0.0087948868 2:14.314627 
-61.868820907897152 1:-0.044733193 2:16.976581 
-100 1:-0.027751923 2:16.983234 
-100 1:-0.010765095 2:16.98958 
