svm_type c_svc
kernel_type polynomial
degree 1
gamma 0.5
coef0 1
nr_class 2
total_sv 15
rho 1.2132166741490196
label 1 -1
nr_sv 8 7
SV
100 1:0.026787905 2:5.1177338 
19.503074351934522 1:0.076787905 2:5.017682 
100 1:0.027160868 2:9.3103359 
100 1:0.01347117 2:10.28708 
100 1:0.012858914 2:14.293806 
100 1:0.0037961749 2:16.986155 
100 1:0.0018006399 2:17.436188 
80.4969256480653 1:0.0039175544 2:18.814524 
-100 1:-0.012000608 2:5.1570412 
-100 1:-0.021415948 2:9.3503686 
-100 1:-0.037688702 2:10.290702 
-100 1:-0.053245911 2:14.295241 
-100 1:-0.078601284 2:16.962499 
-100 1:-0.034756855 2:14.706074 
-100 1:-0.086856257 2:18.790825 
